200 64
41 -0.9735197 1.0697224 -0.67447174 -0.46424362 -1.892469 2.879632 0.6775608 0.98943186 0.66360164 0.78385884 -0.9861369 0.4413111 0.83888453 0.17214398 -0.02928127 -1.4002024 -0.14514087 0.71604633 -1.7287164 3.4881692 -0.19094872 -1.0142202 -0.47772506 -0.29988194 0.8257399 0.104314774 0.28712636 2.0229914 0.44652128 -1.7088631 0.9924883 -1.1672101 0.69879806 0.9800404 0.35176826 1.1738538 0.8915272 0.30882317 -0.19843969 0.48844013 0.3628409 1.1554533 0.7521073 0.8819965 2.375902 -1.6318493 -1.7600838 0.7553184 -0.038259175 0.019578956 -1.3816091 0.44651175 0.6177708 -0.4299533 1.2895817 -0.79278386 0.8159 1.9105473 -0.48380423 -0.30133393 -0.20246862 0.35921016 -0.7222837 0.50445735
15 0.50812215 -0.196452 0.46057433 0.6423904 -2.37235 -0.6205619 0.4819113 1.7608011 0.69275045 1.8429835 -0.09785504 0.59963757 1.0755394 0.2850178 -0.1545943 -0.09871932 -0.7406573 0.047185913 1.036884 1.5329541 -0.45010218 -0.12287762 0.061449543 0.09449147 -0.19062658 0.17151994 0.98024476 -0.2888453 0.5494183 1.4975997 1.651928 -1.3857512 -0.0014079653 -0.53674585 0.98291284 0.12015145 0.14903378 0.42839587 0.26603073 -1.6185422 0.3403179 1.2103866 0.89010936 1.0684805 0.27278912 -1.6506535 -2.370874 2.4174201 -0.23305115 -0.7889861 0.010186541 0.65619934 2.2072372 -0.83372897 2.2270372 -0.73048395 1.0410151 -0.9214908 0.12996547 -0.07173759 0.45026344 -1.7734113 1.014782 0.47435647
122 1.0302101 -0.8400795 0.32445294 1.1123812 -3.1437237 -0.07507419 0.255115 1.2219498 0.38226578 2.4507096 0.49190235 0.6302888 0.08400114 0.85657567 -0.7019682 -0.51330245 -0.3043772 -0.72819346 -0.49041927 1.0577115 -0.5882367 0.43789178 0.22186767 0.4268764 -0.8206591 -0.14885941 0.78233105 0.8453649 0.015406874 1.9751809 0.95000565 -2.1217782 -0.0407548 -0.344464 0.84474784 -0.07527529 -0.43066466 1.2372655 -0.0203831 -1.0607275 0.4418132 1.3360871 0.19019836 0.82401985 1.0260819 -1.8717161 -1.7008635 2.6548584 -0.9935351 -0.8108482 0.15010509 1.05197 1.4478703 -1.675917 1.1844267 -1.1998314 0.67523813 -1.6067195 -0.5909266 -1.1207544 -0.83968925 -0.80186063 0.50464356 0.44856682
80 -0.47753614 1.6564085 0.48334694 1.0774287 -2.6090615 0.82770133 1.0504794 1.5985342 -0.21429156 -0.45754898 0.9690028 -0.23544016 -0.3007585 -0.19586012 0.08184788 -0.6620503 -1.2254391 0.5112433 -2.0276446 0.7820988 -0.14454208 -2.1094487 0.7910621 -0.3550295 0.4379803 0.3168012 -0.12596922 1.0274111 1.0163134 0.14294401 1.638848 -0.5910422 1.5212325 1.6499227 1.9218671 -0.252968 0.12928607 0.026726447 -1.0495614 -1.4530494 0.56565136 0.47586733 -1.021277 0.7658768 -1.0577711 -1.8900253 0.73826355 0.38923338 -0.5618495 1.5204129 0.7015856 -0.10751619 0.36345217 -1.6140127 1.8776404 0.2999677 0.40685177 -0.4555607 0.33378556 -0.5048243 0.22966024 -0.69870776 -0.1756302 0.91389585
156 -1.5137017 1.6016278 1.077373 0.25541896 -1.2800766 1.1250844 0.91459626 1.5037879 0.8524101 0.89236987 -1.0084282 1.4757785 -0.6635879 -0.22872537 0.61881685 -0.54872715 -1.2821071 -0.5686801 -0.11467502 0.3031074 -0.13154222 -1.6902422 -0.5127576 -0.39145005 -2.1330519 1.0767508 -0.2599206 0.79433304 0.45581666 1.2490795 2.0528207 -0.89197606 -0.20677246 1.7407646 -1.2557503 1.2447027 1.0249299 -0.08631351 -0.65837514 -1.2853925 0.23435271 1.8527516 -0.13461806 0.50104034 0.7968365 -1.0665522 -0.40386865 0.462677 0.454107 0.6993424 -0.3803896 1.2872186 0.9317396 -0.7602732 0.049856696 0.18693684 0.46692497 -0.62548196 0.46159723 -1.8012112 1.1802568 0.5377827 -0.8049268 -0.58847684
139 0.47800982 0.95137143 1.1108016 0.15295514 -2.7371216 1.6994754 0.79011554 0.72573566 0.65377 2.3269296 -0.889168 -0.7997562 1.0293498 1.112619 -0.19013742 -0.5525142 -1.6607395 -0.40701118 -0.41008013 1.104606 -1.7598885 0.3782949 -0.50799704 -1.5871607 0.37195078 -0.11114751 -0.043660276 0.5352011 2.11062 1.5863003 1.7709159 -0.28834087 1.4509112 0.22793856 0.09706729 1.680639 -0.077833235 -1.9088426 -1.8605741 -0.46949437 -0.7795676 -0.23546965 1.3542141 0.47722545 1.5972524 -2.2044969 0.30319044 0.2202858 -0.020613048 1.015191 0.57629 1.550094 -1.1085674 -0.37590832 1.145812 1.2441783 0.5278698 -1.0399443 0.26246753 -1.7180712 0.5343791 0.2972551 0.0035418372 0.7808699
169 0.7362868 0.74709487 0.13661051 0.28086066 -0.48914945 1.5233978 0.86938554 0.64460737 0.47295755 1.7669677 -0.8193484 0.05143646 -0.3733894 0.29515386 -0.67814153 -0.74470186 -0.25450248 -0.21651372 -0.1834775 0.442711 0.2752741 -0.46624362 -0.2673457 -0.005490047 -0.6732279 0.19276376 -0.2006746 -0.33711597 0.7611936 0.4871129 0.62466913 0.1818226 -0.49459934 0.39321056 0.25672647 -0.6015818 1.2297031 0.005262089 0.45624614 -0.4211233 -0.18355453 0.46044594 -0.29556167 -0.33510318 0.38422748 -1.8884915 -0.08303687 -0.6052961 -0.040044025 -0.06478919 0.050487056 -0.9343735 -0.3914967 -0.47957993 1.1337985 -0.41423056 0.6664756 -0.78824145 -0.1848464 -0.27260906 -0.032305326 -0.759995 -0.9026746 0.3554059
157 -0.38501048 0.8215629 0.67837006 0.71367526 -1.5860883 0.75144386 -0.55606115 0.6459027 1.1528313 0.62005526 -1.0650028 -0.74875313 -0.68037933 0.49506187 -0.66743976 -0.5231677 -1.5307767 -0.48607227 0.32862332 1.2396762 -0.21120712 -1.0287312 0.79722977 0.4208773 -0.37783778 0.43020338 1.0122294 0.06398144 1.0744634 0.023405237 0.8305207 -0.4331289 -0.75955963 -0.050054234 0.68336093 0.30286983 -0.36099026 -1.1181253 -0.048937738 0.017458098 0.95126337 0.0258123 -0.038761124 -0.004053228 0.38137445 -1.0387884 0.5566291 0.24163865 -0.9772913 0.31066534 0.16678746 0.42433044 1.250989 -1.5366281 -0.5303184 0.92184865 0.9958042 -0.0025156531 0.20254049 -0.5369833 -0.30188188 -0.47032803 -0.45145977 -0.09357349
145 -0.4925347 0.12602799 0.84356546 1.7028807 -0.5096504 0.574301 0.6304685 -0.6963991 0.6750567 0.93088895 -0.8151298 0.14554057 0.20353611 -0.06256166 -0.6338651 0.16416684 -1.3069258 -0.6625711 -0.4572703 1.2918513 0.09518299 -0.46573272 0.9035802 0.6160881 -0.10377681 0.9565334 -1.2487441 0.64352286 0.7577241 -0.5895933 0.850932 -0.38174355 0.123091616 -0.07022189 0.10989558 -0.9308941 0.69550353 0.49498793 -0.55353886 -0.42589247 0.28615376 1.0210364 0.70791066 1.0293224 0.83783233 -1.093651 -0.32320464 -0.13965805 0.15261652 -0.33509824 0.9386455 0.81403524 0.41023827 -1.0121853 1.1983551 1.3561628 1.1186899 -0.6672416 0.6668133 0.014002897 0.09851131 0.5051359 -0.7867181 -0.2758953
20 -0.62725216 -0.17183971 0.14519921 -0.11656269 -1.2481018 0.22252972 0.52319205 0.30813015 -0.3741008 0.727705 -0.08293094 -0.8726039 0.20405617 -1.4032998 -0.7880695 0.059892494 -1.3132019 0.113482274 0.54409623 0.5295287 -0.45859182 -0.5396136 -0.4810406 -0.90874845 0.029463157 -0.22158065 -0.23532027 0.43387586 1.2086102 -0.06115434 -0.19764136 -0.17622751 -0.91644126 0.4036248 -0.11811629 0.62896144 1.4067519 0.71297616 -0.46981737 -0.45497644 0.41215318 0.13830547 0.29532072 0.4078558 0.3811096 -1.4716241 0.014726607 0.4260192 -0.076601 0.7238017 1.1346531 0.16012889 0.6922269 -0.8402606 0.34708026 -0.10655763 0.9894617 -0.7796529 0.13403565 -0.6292002 -0.35442856 0.32240763 -0.963347 0.47439525
131 -0.5252045 0.87162846 0.36640435 2.0370932 -0.2719384 0.6022185 1.6507586 1.3552204 0.46900657 1.5999945 0.21437366 -0.16514778 1.1855822 0.26975667 -1.1395684 -0.043839615 -0.7550158 -1.2861786 0.9783591 1.2733265 0.4130924 -1.2264569 -1.0619779 -0.11807967 1.0164874 -0.9786063 0.21031953 1.2927225 -0.9044192 0.6829921 0.909797 -0.68542784 0.1760206 1.1016334 -0.2632698 0.22941759 -0.14036575 -0.028667355 -1.2827486 -0.8005214 1.6056346 0.20691092 0.0045297802 0.378733 0.717309 -1.4765608 -0.107872374 0.93869805 0.093671 1.0079101 -0.56215894 0.51208425 0.46465388 -0.28126195 0.9931141 0.72076243 0.9216366 -0.72604823 -0.6599456 -0.112702645 0.72736704 -0.6427537 -1.4708228 0.5780124
130 -0.31021476 -0.04017077 1.083253 1.7166196 -0.72256553 0.43585598 0.8518965 1.363037 1.2018594 0.23833747 0.7193567 -0.2817826 1.1911125 -0.29374912 -0.67982507 -0.8865216 0.95450455 -1.1378958 1.0788777 1.6079942 0.6478545 -1.2479429 -1.0178759 -0.3255625 1.2489507 -0.6920165 -0.416935 1.2027314 0.82755196 0.92242867 1.5372632 -0.89684165 0.092961825 0.25795192 -0.53009915 -0.2685556 0.2916266 -0.88950896 -1.0251995 -1.1571751 1.0375295 1.0701438 -0.5855553 0.9273978 1.2394513 -1.4292178 -0.5030284 0.10891413 -0.39418507 0.95895314 -0.09413932 0.7075417 0.47657123 -0.5553501 1.4116938 0.34536213 -0.02792334 -0.7803386 -0.7771649 -1.45418 0.13262065 -0.66126835 -1.9643251 0.4835067
23 -0.79820144 0.07915738 -0.11100647 0.5974782 -0.9851569 0.49052587 0.5042855 0.89975667 -1.1212412 0.4126182 -0.35761777 0.37690014 0.37761533 -0.19072962 -0.007057724 -0.35335737 -0.3043654 -1.3211101 -0.17520674 0.62545496 0.081326775 -0.3722104 0.30223283 -0.647635 -0.23203848 0.22235036 -0.15083298 -0.6192235 0.8741279 -0.15521815 0.46363857 0.032951523 -0.67729324 0.31293777 0.3357804 -0.17604883 0.2560467 -0.18842833 -0.44693622 -0.27044216 0.6598699 0.15742923 -0.31601563 0.04451281 0.6264187 -0.062735006 -0.106198356 0.39601523 0.5429922 0.013261683 -0.122356184 1.0085394 -0.9439228 0.019638963 0.9994805 -0.712654 0.45293584 -0.81284714 0.5034265 0.096074894 -0.52825254 -0.041093364 -0.20845568 0.46281993
184 0.08023529 1.2132107 0.30905336 0.77597183 -0.62689996 0.6942802 -0.11513742 1.1786602 0.38956147 0.32605013 -0.22056511 -0.18008244 1.0416467 0.013696686 -0.9198413 -0.8238997 -0.8385428 -0.6305638 -1.1594149 0.27124643 -0.44562176 -0.12926523 -0.64593166 -0.3884988 -0.10728637 0.23429391 0.29588884 -0.08435698 1.0215878 -0.30714062 -0.00818288 0.020260686 0.13747224 -0.43113643 -0.6477348 -0.13637924 0.123614326 0.587243 0.25259843 -0.35465884 0.048969608 -0.6338709 -0.8697374 0.13178755 -0.0151438685 -0.45925727 -0.7707171 0.16697328 0.22677688 0.44473395 0.54742837 0.5345975 0.4125361 -0.49201 0.5707104 0.4366676 1.3214791 -0.87976694 0.52371943 -0.6125159 -0.006589876 0.021863507 -1.0432789 -0.65428656
153 -2.4607518 -4.229276 1.2079523 5.0076785 -1.3983909 -0.18157905 0.10984024 4.5226393 1.6832104 1.6836766 0.40991578 1.7188848 -0.77537525 -1.39174 0.07627805 -2.0758865 -2.3709002 -0.4207313 2.2471611 1.4516215 2.7099903 -0.6971923 -1.6696877 3.2015917 -1.9489518 -0.6277386 2.507382 1.7395995 -2.1379063 -3.1693637 0.83283573 -2.183555 1.2107569 -1.2575003 -0.62706363 2.1500592 0.47403815 -4.4143777 -2.382505 -1.2964363 1.0107033 0.2765186 -3.6477015 -1.0820836 3.5085714 -2.0573256 -1.3926065 0.19572309 0.7279243 2.8498378 3.0610259 -1.0771972 -2.3979769 -2.4106178 -0.10955042 -3.6146588 3.7401552 1.4934382 0.9963828 -0.9606313 2.4608023 -2.2622662 -0.16207422 4.5016437
154 -2.4479446 -4.2158155 1.2863504 5.05357 -1.4191656 -0.24057798 0.07445789 4.5601363 1.6798431 1.7073865 0.43073353 1.7075884 -0.7384261 -1.3692365 0.08508656 -2.1098797 -2.3610835 -0.37343428 2.256204 1.4534261 2.6917973 -0.7128676 -1.6959968 3.2011342 -1.8675573 -0.626949 2.5218477 1.767733 -2.1609495 -3.2195735 0.8170443 -2.2096713 1.1938298 -1.2839321 -0.5395021 2.1562123 0.50808406 -4.4481306 -2.3700907 -1.2349979 1.0523099 0.27854428 -3.614645 -1.1313094 3.492993 -2.0421493 -1.3943945 0.18538956 0.8121848 2.8540528 3.0951757 -1.0974351 -2.317266 -2.414544 -0.1152653 -3.6414526 3.7807806 1.4270251 0.9746233 -0.9526739 2.47113 -2.2637966 -0.1972964 4.4855137
158 -0.054021943 0.15280955 -0.36002102 -0.112540394 -0.39883703 0.64742017 0.116196975 0.18114643 0.12762123 0.14493147 -0.19070551 -0.18166865 0.21255024 -0.06845677 0.0826676 -0.10616959 0.07200602 0.2995063 -0.49884433 0.582362 -0.03030083 -0.35241076 -0.06642962 -0.064677775 0.110787004 0.096591584 0.08482997 0.63897115 0.08214058 -0.38725308 0.24167167 -0.3615638 0.1870018 0.06077381 0.22090551 0.34434092 0.051524628 0.1508968 0.0030119545 0.09253786 -0.12670428 0.556844 0.32636353 -0.13911016 0.44560394 -0.22135495 -0.4610541 0.1691003 0.18938603 -0.0705962 -0.1674309 0.29923373 0.022441993 0.07196562 0.2463378 -0.11831039 -0.07152489 0.24072649 0.021253884 -0.035271853 0.19609338 -0.18642801 -0.27900973 0.11791945
149 -0.09557503 0.08032964 -0.3444392 -0.038558412 -0.52364355 0.5023634 0.2227346 0.23059599 0.14705138 0.2142357 -0.20817794 -0.2696702 0.2934301 -0.0050371224 0.18545902 -0.10184293 0.091616385 0.2559177 -0.46814632 0.49987307 0.15280192 -0.23170899 -0.1247664 0.014048969 0.0830599 0.19641234 0.16466704 0.69973946 0.096304625 -0.514535 0.34276775 -0.24907811 0.10404674 0.061216068 0.188156 0.18236677 -0.021793263 0.19277738 -0.0449154 0.0031686479 -0.38440934 0.36005354 0.32428822 -0.1838387 0.59265184 -0.34574187 -0.24517041 0.15746556 0.3924528 0.07817616 -0.25417995 0.2584061 0.2315568 0.030123921 0.21331173 -0.20719092 -0.2651751 0.28138718 0.024298577 0.09775409 0.11730517 -0.11459231 -0.20237815 -0.03768949
159 0.037323978 0.17930917 -0.4060227 -0.13577543 -0.4581855 0.64979947 0.20587774 0.33469796 0.11739976 0.13087012 -0.22645956 -0.22139187 0.14870813 -0.16308945 0.11881059 -0.17203136 0.081294484 0.31751487 -0.51344705 0.52703214 0.20579298 -0.16224076 -0.07199316 -0.03656755 0.046391957 0.12778705 0.061641037 0.625734 0.017871646 -0.4381997 0.3658925 -0.270681 0.18402962 -0.031532925 0.10157826 0.4088347 0.024080105 0.16312121 -0.04372115 0.10244156 -0.07218246 0.47307515 0.35058534 -0.010428451 0.5530554 -0.24732125 -0.30702382 0.06229555 0.13976951 -0.042911865 -0.16262583 0.40829784 0.16851208 0.036555465 0.30880174 -0.081110485 -0.15032338 0.12860353 -0.115315154 0.15252365 0.19192933 -0.1589885 -0.19909202 0.12456885
100 0.0052808365 0.10892814 -0.45026615 -0.20603117 -0.4404535 0.709411 0.14543429 0.17653301 0.043128576 0.06272273 -0.22256039 -0.11234255 0.2182521 0.020015977 -0.013503921 -0.30727583 0.053099845 0.24792981 -0.48156503 0.5787944 -0.052262373 -0.21629435 -0.008342609 -0.03444118 0.06768723 0.040827855 0.060059078 0.6135807 0.21856976 -0.39898172 0.16492923 -0.44501987 0.26707086 0.08349318 0.07299813 0.3714737 0.114834435 0.1736007 0.065021 0.038635015 0.12389517 0.71967506 0.3619062 -0.03378922 0.37584627 -0.22796689 -0.44085446 0.21632263 0.22093752 -0.052093226 -0.2813688 0.19502997 0.018316519 0.04165459 0.1814688 0.09016078 -0.046537038 0.25121328 0.16621637 -0.047330752 0.24065185 -0.21371219 -0.32808083 0.29932258
166 -0.46166983 0.5470118 0.20242171 0.08529424 -0.3386158 0.020828525 0.18338248 0.30571127 0.31186935 0.29662696 -0.20064825 0.24545313 -0.1619161 0.12177034 0.48366246 0.19761635 -0.40833175 -0.03302411 -0.2850545 -0.07949859 0.05814648 -0.5727244 -0.3140568 0.017894888 -0.635753 0.31659827 -0.23349474 0.36791807 0.18012081 0.5039861 0.6595119 -0.031256948 -0.18133108 0.5313311 -0.42433265 0.24778315 0.2887422 0.07439326 -0.15509135 -0.3155592 -0.023602968 0.7856797 -0.0040998035 -0.14965229 0.3203573 -0.35135216 -0.36834952 0.19417891 0.2797989 0.35871965 0.017022194 0.5884599 0.17174819 -0.17619744 0.025830239 -0.018679995 0.05903073 -0.22934261 -0.027446276 -0.5845208 0.59631354 0.09917762 -0.06785134 -0.12475819
141 0.38353884 0.105197705 0.06502356 -0.099594906 -0.41377622 -0.22713491 0.67923075 0.20763204 0.26576534 0.73991597 -0.325197 -0.53818387 0.27316466 0.3031511 0.31456375 -0.17267945 -0.657501 -0.36872384 -0.28153324 0.18818645 -0.35624436 -0.055645056 -0.17831688 -0.9128206 0.07130002 0.11330788 -0.088443205 0.38440198 0.5829812 0.43197364 0.4276208 -0.11918817 0.49785674 -0.34396228 0.25198734 0.4301052 -0.28641185 -0.37837666 -0.45420167 -0.22340381 -0.45958957 0.30656198 0.27512652 -0.14933924 0.35263354 -0.6475999 0.073787875 -0.14318521 0.040861335 0.06610204 0.07855167 0.37311792 -0.11157368 0.08760114 0.32944563 0.29061803 0.20695461 -0.008192451 0.20940593 -0.41743383 0.14604591 0.27721232 0.11468662 0.10220928
24 0.17416252 0.2662632 0.21355382 0.15564285 -0.828065 0.27362755 0.20760211 0.6346622 -0.09517589 -0.16283037 0.30428025 -0.01696256 0.034606464 -0.22181757 -0.09960182 -0.041949943 -0.41083908 0.130596 -0.570328 0.16015981 0.2933376 -0.59948915 0.20892534 -0.05410275 0.25739747 0.17062007 -0.2119913 0.43254545 0.23686872 0.12533063 0.4504764 -0.3422419 0.3975099 0.51468164 0.6188364 -0.07764421 0.06264952 -0.069269806 -0.2761937 -0.4676903 0.026473612 0.24395396 -0.12179751 0.06893885 -0.5460062 -0.50800717 0.15366812 0.0013694401 -0.031764753 0.55193913 0.13035253 0.074058056 -0.031328335 -0.4860369 0.5136626 0.30211848 0.0045665107 -0.16906479 -0.04610085 0.05271152 0.0996749 -0.058768686 0.11326972 0.09765225
151 0.36815262 -0.38917068 0.14494331 0.5919266 -0.5415817 -0.2726554 -0.19664492 0.5567092 -0.17202747 0.76660055 -0.1893748 -0.15290894 0.026939519 -0.22408156 0.48858288 0.19136968 -0.3795623 -0.49027583 -0.059860334 -0.24484491 -0.30779853 0.16140436 -0.029929593 0.21706106 -0.20775883 -0.40141213 0.12554727 0.37930253 0.122711696 -0.10005988 0.8232147 0.08758991 0.116815664 -0.13735802 0.28753564 -0.25178525 -0.15075418 0.24888815 0.25771517 0.007055981 0.3901289 0.06360037 0.1875757 0.08324252 -0.0146804955 -0.9341557 -0.7814243 0.27446818 0.049917836 -0.12943394 0.09784779 0.10739921 0.5258562 0.041245442 0.6166915 -0.3063982 -0.45801282 0.10615263 -0.30610526 -0.43234688 0.19985144 0.031517994 0.42734507 -0.08194131
198 0.25709835 0.13786374 -0.13278452 0.25659677 -0.56621176 -0.6513684 0.20357978 0.41565117 0.14977567 0.05409967 -0.16976355 -0.3283757 0.38751113 0.28579843 -0.31060788 0.42948076 -0.29267508 -0.10367108 0.049911488 0.17993703 -0.010091664 -0.03954007 0.14468014 -0.032624632 -0.24977285 0.07331264 0.5581497 0.6572455 -0.028592762 0.19437802 -0.107305445 -0.047471747 0.420165 0.36380622 -0.16770458 -0.4277976 0.22838949 -0.096681945 0.44301522 -0.57346326 -0.4886881 0.6016966 0.50525856 -0.0087597165 0.299661 -0.19440167 -0.3717964 0.38086155 -0.43721938 -0.49788746 -0.27891663 0.5295247 0.016554289 -0.63251525 0.45787856 -0.5117258 0.03292038 -0.6763921 -0.0659905 -0.19716601 0.052981567 -0.29511788 0.2653812 0.5232232
33 0.3788539 0.19030017 0.14470656 0.04197298 -0.5381646 -0.047995035 0.44148 0.23382576 0.24017452 0.73310953 -0.2759173 -0.46253258 0.2841379 0.24620531 0.27449247 -0.11943702 -0.61113036 -0.1654683 -0.20267394 0.20607927 -0.28575394 -0.013708675 -0.16816023 -0.67964256 0.09578155 0.13778888 -0.13030703 0.34608582 0.5399352 0.47217587 0.42002857 0.07285721 0.35074276 -0.18495226 0.13503896 0.49856874 -0.3134138 -0.3964674 -0.34429666 -0.18881175 -0.41467005 0.08369314 0.37841514 0.0046539027 0.37144712 -0.6199278 0.041837092 -0.18278109 0.010060551 0.19114845 0.11375353 0.53221285 -0.24840303 0.024217343 0.46955445 0.35857633 0.119508214 -0.1344103 0.099016026 -0.42791378 0.15952578 0.28173283 0.17603199 0.24236012
110 -0.26895142 0.18531543 -0.47762948 -0.31330666 -0.43192962 0.64801145 -0.25579202 0.30659765 0.38481015 0.5049156 0.37490624 -0.2743673 0.31265786 0.12503622 -0.106230296 -0.37187478 0.20369652 -0.28297454 -0.46971497 0.61367995 0.004211299 -0.27746814 0.17621449 0.2090163 0.43091944 0.47857928 0.1611428 0.63820493 0.05537019 -0.4529462 0.16188762 0.028385038 -0.4531652 0.24392429 0.20120333 0.6303486 0.4887782 0.24529843 -0.42983437 -0.86982334 -0.24282627 -0.02695279 0.03817035 0.9055318 0.41255167 -0.6189745 -0.35311684 -0.08671289 -0.19275509 -0.30575463 -0.657731 0.019386955 -0.16334127 0.238808 0.011470643 -0.08177972 -0.05444104 0.27885267 0.026948702 0.1965962 0.382422 0.2759883 0.1859172 -0.15706432
43 -0.027032753 -0.23421495 0.13564862 -0.09286105 -0.9378991 0.824166 0.60961306 -0.031839423 0.15908179 -0.13234225 -0.5121019 -0.39452043 0.33330604 0.11648131 0.70148325 -0.08219845 0.19464219 0.18406798 -0.59587944 0.66165257 0.47994798 0.0044318666 -0.62115985 0.3033532 0.042205587 0.24418314 0.5185497 -0.036833826 0.13524549 0.26075077 -0.28195325 0.21884713 0.20418656 0.7232598 0.1146746 0.08168534 0.27871525 0.30288568 -0.09274922 0.2950151 0.046692017 0.23913287 0.038936943 0.18757507 0.39655328 -0.23207094 -0.16397044 0.38251954 -0.14059278 -0.07054288 -0.43826213 0.47888467 0.5143033 0.10716888 0.7251859 0.2862013 0.12520707 0.6635075 -0.03460476 0.14169389 -0.10572942 0.36049184 -0.47309798 0.15200879
140 0.117290325 0.16451998 0.2854416 0.14564852 -0.7429856 0.619855 0.11453883 0.24874417 0.11587401 0.7166259 -0.08869929 -0.508131 0.30387077 0.071286134 -0.08759314 0.14259931 -0.25591573 -0.048046246 -0.073823355 0.13859506 -0.26819134 0.008356059 -0.16542158 -0.5314312 0.05900075 0.10112013 -0.12755139 0.0036258232 0.5748843 0.39829072 0.5191444 0.12465679 0.3497699 -0.10111646 -0.009537032 0.3919077 -0.11448885 -0.59915435 -0.4228723 0.04873789 -0.46291324 0.015771657 0.40775466 0.08945111 0.3491699 -0.71868217 0.066014685 0.13104643 0.15826517 0.26595643 -0.06538733 0.54106337 -0.2377124 -0.14661054 0.39603475 0.64984715 0.08133587 -0.35159606 0.01754181 -0.4882352 0.25134698 0.052341674 0.3604153 0.24129835
164 -0.49812 0.50413924 0.15324664 0.0381001 -0.37659925 0.11516907 0.14013517 0.20707843 0.15988366 0.35421762 -0.109353065 0.24360548 0.022931332 0.012436803 0.452272 -0.056423146 -0.33108318 -0.06476524 -0.29742566 0.031629335 0.033544414 -0.47737816 -0.36458725 -0.08687646 -0.6498789 0.382781 -0.21351768 0.20148186 -0.13677548 0.55793965 0.70446485 -0.17853986 -0.1675483 0.580367 -0.422696 0.16328461 0.453256 -0.02420634 -0.11483731 -0.37764305 -0.021851327 0.71077424 0.022652593 0.12024287 0.29319796 -0.39260763 -0.22905672 0.12650952 0.34046927 0.43682328 -0.14272825 0.44004476 0.26346236 -0.32598734 0.012319045 0.18250585 -0.0040731425 -0.3050549 0.22010078 -0.6287018 0.454812 0.13456942 -0.09230093 -0.12671085
12 0.20836224 0.28282443 0.30969632 0.1364393 -1.2335854 -0.2796613 0.3176945 0.2041744 0.038954284 0.071469516 0.30210724 0.16372438 -0.36964253 0.152129 -0.11764924 -0.09092556 -0.04063153 -0.5924146 -0.06166997 0.22031689 0.555685 -0.049826656 0.09979417 0.09915282 0.09133857 0.11823282 0.08984728 -0.052032977 -0.16739513 0.13311777 0.09761695 -0.8087074 -0.25833786 -0.50089306 0.20908707 0.043927215 -0.02601357 0.15854038 0.3015413 -0.42293277 -0.033917744 -0.057575773 0.62805957 -0.123997614 0.24180487 -0.6549094 -0.45365608 0.7503219 -0.099000216 -0.35271966 0.18266621 -0.12356801 0.31116125 0.34675565 0.29578942 -0.06901174 -0.06131632 -0.48466945 0.029086094 -0.26707762 0.60881376 0.07604692 0.10451954 0.24297018
1 -0.005442505 0.39224452 0.018528773 0.21708204 -0.7904743 0.24305849 0.29601508 0.59532845 -0.14408705 0.008722733 0.39373598 -0.03610791 -0.10230726 -0.08607543 -0.08611205 -0.08807645 -0.25664455 0.19369407 -0.4487903 0.028571604 0.16476049 -0.5703015 0.08775377 -0.08176837 0.3139174 0.30274943 -0.22555111 0.22651598 0.20776458 0.08963227 0.387757 -0.36888018 0.47728312 0.40139666 0.5170656 0.029917002 0.037433784 -0.10051544 -0.37980083 -0.29790074 0.05475013 0.30929008 -0.13366552 0.11246986 -0.51465434 -0.5754116 0.13626099 -0.011999293 -0.18414013 0.48231992 0.15564686 0.029190693 0.10209564 -0.749594 0.6761735 0.2887174 -0.11861502 -0.103775464 0.20341176 0.10177518 0.07476495 0.025925612 -0.024737835 0.056515843
121 -0.0014655173 -0.18377677 0.26699147 0.12854578 -0.6039959 0.15575306 -0.08112452 0.18372874 -0.2578414 0.7419312 -0.4491621 -0.020899614 0.45361206 0.27725756 0.05324926 0.008570556 -0.2286798 0.22178316 0.18262012 0.4391121 0.33842298 0.2725398 -0.45026007 -0.16746798 0.24925713 -0.0035522536 -0.0719906 0.112524875 0.085613124 0.6315874 0.54422677 -0.7067898 -0.1941757 -0.25178602 0.010784752 -0.34832537 -0.20390943 0.4898386 0.08350509 -0.5516015 -0.13291362 0.48492315 -0.47145694 0.037933834 -0.112742305 -0.3332173 0.10411537 0.42418352 -0.22361544 -0.26983407 0.26414642 0.5684981 0.38137004 -0.5687379 0.13755724 -0.38184217 -0.005532596 0.009864758 -0.16486326 0.34432712 0.27603763 -0.23534481 0.59729296 0.042365458
16 0.14411432 0.14253144 0.42805266 0.90684724 -0.16428901 0.26953036 0.03028923 -0.45460263 0.24268323 0.15644968 -0.3651446 -0.1267937 -0.05055243 -0.008141699 -0.4110448 0.15876526 -0.7216391 -0.11761324 -0.2961362 0.7208666 0.08382896 -0.13695537 0.2629844 0.26480156 -0.18701155 0.48717844 -0.72631425 0.48251772 0.07561208 -0.16823559 0.6043841 -0.31529593 0.06623105 -0.093648754 0.12985133 -0.5631459 0.40152836 0.18384804 -0.35417855 -0.20526324 0.34043464 0.7071402 0.5890919 0.291273 0.40451995 -0.52208596 -0.31443414 -0.064117424 0.2906394 0.036818705 0.49946302 0.5547472 0.00695272 -0.5386171 0.7700554 0.6739325 0.3617847 -0.3258177 0.26006618 0.021076767 0.16320488 0.18000424 -0.16939087 -0.18016064
65 0.11189639 0.15605384 0.27274883 0.26782966 -0.6048517 0.18164991 -0.55442977 0.42039192 0.8650035 0.33993155 -0.3549715 -0.55087805 -0.46718967 0.38821086 -0.47720134 -0.14073417 -0.7962906 0.13275145 0.025339542 0.5573276 0.20685299 -0.37180662 0.39848366 0.045991685 -0.24036014 0.32594875 0.60722816 0.21094425 0.23071279 0.12898532 0.35409728 -0.44444305 -0.49750644 0.34468767 0.40869725 0.10453628 -0.6522289 -0.94795835 0.053864934 -0.20684431 0.71083486 0.4755492 0.15229183 -0.19555047 0.33423662 -0.753908 -0.05343496 -0.13386533 -0.41024446 0.4225687 0.17619246 0.08652303 0.6277026 -0.5356093 -0.17637806 0.4161909 0.74268335 0.3369727 0.21891463 -0.26469508 0.03199842 -0.18638523 -0.20618166 -0.098638386
26 -0.0065864325 0.3999801 0.015948325 0.17992361 -0.62260693 0.3738696 0.2987421 0.55305266 -0.14027284 -0.09312673 0.38730115 0.007539813 -0.32864612 -0.23064435 -0.10160792 -0.067221195 -0.27066958 0.19373362 -0.40215173 0.1000252 0.12811938 -0.4622138 0.13270955 -0.046059757 0.29345277 0.1995954 -0.18133456 0.3500113 0.24602404 0.16003539 0.35988066 -0.24005732 0.5404407 0.36831397 0.6014871 -0.022683877 -0.11706044 -0.12431025 -0.23336825 -0.61728674 0.033937268 0.2695864 -0.17530224 0.13023674 -0.39213863 -0.5713814 0.090948336 0.14460579 -0.08572698 0.5567876 0.17059633 0.10403697 0.049130317 -0.6324251 0.69016933 0.30386016 0.021914048 -0.09384967 0.16109885 0.0462352 0.096633606 0.072266184 0.008255618 0.089235924
11 0.21157129 -0.2454577 0.14919366 0.09336652 -0.6111077 -0.020465326 0.14579116 0.21335262 0.005357186 0.5388173 0.19759908 -0.0623137 -0.0067528775 0.2580191 -0.1937405 -0.050435722 -0.10414522 -0.0393209 0.006288937 0.04274027 -0.094983116 0.018915763 -0.13483538 0.044256084 -0.1035851 0.29801956 0.033666063 0.049441688 0.07799086 0.35166118 0.20738648 -0.38104266 0.0291604 -0.055514473 0.13991944 -0.040389393 -0.097437516 0.069803916 -0.16706862 -0.3764602 0.2688723 0.51249355 0.21041831 0.120846294 0.0801123 -0.17531346 -0.5735702 0.6296818 -0.24359141 -0.20892736 0.038881708 0.16394742 0.48098516 -0.100280225 0.3995829 -0.29028115 0.076571636 -0.32218814 -0.03577726 0.031411562 0.1107181 -0.40221915 0.18199065 -0.06737998
39 0.105805114 0.018744918 0.11898441 0.21430555 -0.7165123 0.30482656 0.2848979 0.337876 0.1938563 0.6737033 -0.23544651 -0.35927385 0.2810382 0.18213637 -0.069483 -0.05685562 -0.39899004 -0.080273636 -0.30250642 0.18072881 -0.27013612 0.19735183 -0.15992916 -0.38793278 0.15006638 0.0009673279 -0.07598561 0.016386935 0.5484071 0.42043963 0.4327784 0.075538225 0.29259276 -0.1309804 -0.041457962 0.59398663 -0.050285384 -0.5948105 -0.52396864 -0.15150303 -0.4107075 0.12906334 0.534582 0.15355904 0.2110524 -0.711117 0.03706995 -0.09960277 0.118208185 0.3463005 0.00762979 0.4480517 -0.3363912 -0.14236449 0.3150103 0.5653895 0.07757811 -0.24364436 0.17995888 -0.52303034 0.17357081 -0.0021391416 0.24735036 0.18697853
190 0.69411504 0.2708479 0.17187549 0.30609939 -0.15237899 0.6573888 0.29727527 0.44340104 0.2567602 0.88533145 -0.4992853 -0.11686446 -0.29366106 0.21965638 -0.42764086 -0.2795731 -0.17270654 0.15760249 -0.3659924 0.21613823 0.26950502 -0.24605994 -0.121209055 -0.29616803 -0.40417844 0.15330058 -0.2240423 0.005132719 -0.019583695 0.30624253 0.48539284 -0.031763833 -0.3527233 0.39902154 0.1443344 -0.26065752 0.47060522 -0.12261957 0.44294617 -0.48090827 -0.043531507 0.39642736 -0.122826725 -0.29799512 0.39099714 -1.1434902 -0.20602566 -0.57683486 0.18163358 0.18181917 0.08107249 -0.5345321 -0.5046439 -0.17111197 0.8780706 -0.36502188 0.40106538 -0.46468562 -0.16981255 -0.17828663 0.22737223 -0.4002485 -0.2805745 0.2380347
123 -0.05684124 -0.039282784 -0.2391406 -0.32317764 -0.46176353 0.7757784 0.11485016 0.16655318 0.002999575 0.055476926 -0.18530834 -0.16815074 0.13192628 0.13683198 0.094458915 -0.29037166 0.1716213 0.09658109 -0.5023873 0.4135461 0.09427336 -0.18375006 -0.18142533 -0.096068285 0.19440947 0.04159499 0.07045447 0.5435656 -0.17550397 -0.3003622 0.19796655 -0.20026608 0.1615915 0.34140286 0.002859797 0.07695334 -0.0047743837 -0.05094761 -0.27048275 -0.24218313 -0.068698876 0.34287724 0.3376716 0.22786017 0.45625833 -0.5294716 -0.39193693 -0.04274948 0.22534224 -0.035060022 -0.24273977 0.28248313 0.44088063 0.0620025 0.3156973 -0.19250974 0.17472254 0.28107584 0.14681952 0.19374408 -0.034539063 0.06155214 -0.08584516 -0.08411503
71 -0.20625801 -0.33157453 0.19073024 -0.10695609 -0.6801756 -0.028141929 0.2575858 0.13075727 -0.31825542 0.38555086 0.13066885 -0.7415959 0.10521514 -0.92472076 -0.5646305 0.26112005 -0.7263079 0.44324654 0.15414153 0.18913615 -0.11684328 -0.20003656 -0.37540555 -0.7872213 0.015998205 0.007466093 -0.23777016 0.38322562 0.45692083 0.024388747 -0.07634168 -0.24758412 -0.5840357 0.3721845 -0.079245076 0.3909711 0.6587324 0.3989396 -0.35569096 -0.4900946 0.3359259 0.5101882 0.42697617 0.29995745 0.2786484 -1.0590866 -0.1848724 0.28460634 0.042219717 0.6406203 0.66451806 0.14506494 0.20326094 -0.40989545 0.44909963 -0.19141279 0.5818097 -0.30859247 0.074887685 -0.4271551 0.029414356 0.36020035 -0.45381674 0.30629164
51 0.16453461 -0.1953697 0.12420566 0.23087321 -0.76214683 -0.17026266 -0.05604307 0.09867898 0.110444106 0.47878733 0.11097042 0.11006589 -0.055374842 0.17953855 -0.096365325 0.010747226 0.06459191 -0.14925852 -0.044850074 0.050913706 -0.14590524 0.13932957 -0.2216624 0.06702343 0.07002743 0.21943273 0.15789962 -0.034289926 -0.016953442 0.40864345 0.25134024 -0.465395 0.051347908 0.029257588 0.10095457 0.06542932 0.045594644 0.31032655 -0.16994238 -0.4970732 -0.008385321 0.45182335 0.23119318 0.10490151 0.119857796 -0.26882496 -0.44398284 0.60983187 0.047037993 -0.12690829 -0.089624636 0.053103503 0.38777697 -0.25597525 0.56805354 -0.12755135 0.09455663 -0.27888873 -0.03313138 0.021794269 -0.10641768 -0.39318106 0.07339751 -0.027108222
27 0.009894132 0.28894153 0.31856638 0.27298066 -0.8207575 0.32227486 0.36950198 0.48696622 -0.14144677 -0.1799286 0.34694326 -0.089292526 -0.033028055 -0.023571108 -0.12450485 -0.0130994655 -0.45085466 0.17082629 -0.6265282 0.0679285 0.059529986 -0.541346 0.23681858 -0.10068832 0.24986531 -0.004337471 -0.26483232 0.33567932 0.2802849 0.13680209 0.3295361 -0.19021612 0.328018 0.4462336 0.60886365 -0.050013956 0.018238932 -0.15284023 -0.27631718 -0.4954658 -0.027957322 0.4164272 -0.25754553 0.14566413 -0.41625014 -0.45972484 0.10417282 0.08036174 -0.08974136 0.4835619 -0.032956313 -0.046499662 0.18915649 -0.40803114 0.5874077 0.16949987 -0.065772355 -0.13390513 0.100455984 0.06975663 0.16253127 0.006100383 -0.0036658356 0.111643784
44 -0.047002092 0.045232125 0.027613496 -0.23633917 -0.54888666 0.43097693 0.40338233 0.20405066 -0.004804281 0.15081257 0.0380469 -0.05356652 0.18736538 -0.04755384 0.17167924 -0.17798781 0.122500345 0.27922332 -0.54011697 0.56298643 0.09494448 0.01169382 -0.27357787 0.029378284 0.19423239 0.103255734 0.055664383 0.6734508 0.1497742 -0.2401667 0.30227226 -0.19610526 0.1787612 0.36439848 -0.06175875 0.008712314 -0.10305978 0.027445735 -0.029914849 -0.23039791 -0.08585918 0.29458877 0.39487338 0.3088425 0.43406662 -0.6186037 -0.27361655 -0.012669319 0.15419775 -0.28128725 -0.44174352 0.24524145 0.0854524 0.06581553 0.09809487 -0.27038577 0.25795642 0.4996203 0.08122464 0.387103 0.079097174 0.18210694 -0.2598533 -0.0024676777
162 -0.5889564 0.17298584 0.15675318 0.076970726 -0.30726182 0.17091714 0.2017298 0.27859667 0.21480829 0.2906404 -0.13440295 0.4949934 -0.3392296 -0.032984648 0.35268432 -0.049250305 -0.40120137 -0.07271268 -0.31987953 -0.022772128 0.21530823 -0.5042861 -0.3168944 -0.4161361 -0.5788424 0.534856 -0.17238402 0.19319946 -0.08547688 0.47487333 0.723268 -0.29027072 -0.014883995 0.6093108 -0.45848644 0.30077496 -0.020309232 -0.10698801 -0.11993403 -0.50190103 -0.049079996 0.6760739 0.17904036 0.1941538 0.4110387 -0.45913514 -0.19614176 0.09185971 0.026279232 0.2807213 -0.06457383 0.27687848 0.24436179 -0.077364996 0.014895358 0.13334017 0.15510048 -0.22146393 0.1791054 -0.5451897 0.46024904 -0.031686947 -0.036020886 -0.07779169
97 0.107014544 -0.2507322 -0.082618006 0.24831685 -0.43221506 -0.116777405 0.08155025 0.32073092 0.15933989 0.40489918 0.061323564 0.1626704 -0.016851114 0.08294437 -0.22844109 -0.026535353 -0.09533874 -0.026312841 -0.10976784 0.13572125 -0.16588067 0.2129338 -0.0016446167 0.023553912 0.11299314 0.17653832 0.16497983 -0.16709174 -0.037509367 0.5339495 0.34684587 -0.39448336 0.08232783 -0.09326103 0.2706055 0.041376624 -0.08205637 0.22610699 -0.0370421 -0.41800913 0.078574 0.5829109 0.22891255 0.33942714 0.14933649 -0.47531566 -0.33879548 0.69993955 0.16447642 -0.06869395 0.13534279 0.1289321 0.40310398 -0.13004133 0.29433247 -0.33631143 0.042536985 -0.37099856 -0.096645124 -0.019368274 0.038814444 -0.303789 0.06662921 -0.053050853
118 0.01540016 -0.7151707 0.08913872 0.016013255 -0.5740044 -0.4002802 0.4281706 0.08781359 0.18742011 0.48527467 0.17493002 0.1953978 0.2607013 0.102067806 -0.37880167 -0.052096613 0.27476016 -0.058027063 -0.35294375 0.1579479 0.06924027 0.3058543 -0.06697145 -0.09075613 -0.56605846 0.07725479 -0.16198328 0.012423235 0.10790553 0.5180578 0.39761433 -0.36072245 0.29721212 0.22041047 0.6125929 0.24008356 0.15353821 0.1680828 0.64477766 -0.45468515 0.41698518 -0.030317122 0.31545132 0.15408358 0.24980895 -0.39586917 -0.0038763864 0.52048576 -0.25024948 0.0038959207 -0.12050144 0.6450099 0.5204048 -0.1037559 0.40489835 0.041867733 0.3579322 -0.1068928 -0.19071546 -0.005879143 0.23110633 -0.71088123 0.20679662 -0.28824764
89 -0.016183844 0.051832363 0.25040522 0.112594835 -0.64689463 0.46723187 0.081959106 0.3305583 0.07657954 0.7054436 -0.2751486 -0.48756742 0.29284978 0.21282782 0.07429074 -0.12153997 -0.4230579 -0.22158594 -0.17860928 0.1731916 -0.36457586 0.14441592 -0.10517084 -0.5070597 0.20023818 0.022584353 -0.13839476 0.19634558 0.54466754 0.58734936 0.33386374 -0.022882447 0.41406912 0.003254918 -0.04438448 0.4673783 -0.04482527 -0.59232605 -0.30521578 -0.1795251 -0.5069745 0.1922289 0.47430995 0.014591333 0.24106967 -0.6451998 0.21506166 0.18368581 0.01998008 0.26418775 0.006383955 0.34547728 -0.1840139 0.10210803 0.5526617 0.7006527 0.14233385 -0.28998864 0.17316169 -0.3916956 0.061587643 0.06513922 0.15419431 0.10619441
104 0.03388105 0.44357282 0.07928416 0.342667 -0.714145 0.22871016 0.24423796 0.5936395 -0.23814762 -0.16523148 0.36416677 -0.1476807 -0.036202747 -0.06121852 0.041243397 0.0283975 -0.23635697 0.3335972 -0.4401048 0.089453 0.017334767 -0.46468 0.23443632 -0.038607642 0.12971912 0.2604668 -0.152134 0.30698 0.18253058 0.1917052 0.25518 -0.39319712 0.4224657 0.49285346 0.55756223 -0.05355936 0.038353726 -0.09602621 -0.23399742 -0.48211196 0.20603266 0.2289747 -0.27325067 0.18022259 -0.19365363 -0.6375213 0.23082736 -0.006407087 -0.09295778 0.5214605 0.088997215 -0.030133896 0.118168876 -0.45494854 0.80598015 0.30689007 -0.03225299 -0.075266436 0.13525505 -0.06921602 0.10514999 0.08587523 0.08733567 0.022942599
161 -0.39575833 0.4911689 0.42960846 0.1625531 -0.25862622 0.40316337 0.26725435 0.3787319 0.18547966 0.1767988 -0.07608289 0.17064466 -0.30489165 -0.110512584 0.15699993 -0.083974354 -0.3584919 -0.010498782 -0.10273807 -0.0056534084 0.010908921 -0.51847553 -0.31461605 -0.16433762 -0.6941574 0.26785544 -0.33926377 0.3030293 0.17276101 0.5751156 0.7908921 -0.07903024 -0.18581992 0.7086438 -0.39442483 0.2615249 0.17595164 0.18738186 -0.30827996 -0.35165244 -0.16726846 0.76032746 0.12173905 0.24475096 0.21769749 -0.34567577 -0.33559343 0.3140026 0.21041276 0.1972314 -0.16733004 0.36190733 0.12391262 -0.13274665 -0.00664608 0.14587249 0.11577605 -0.22525835 0.1740951 -0.5184765 0.46988782 0.12434277 -0.12315412 -0.22941583
129 0.21877427 0.19050913 0.21474278 -0.07742177 -0.63005793 0.23450616 0.30096152 0.28031248 0.23279501 0.7052805 -0.144463 -0.44430426 0.31383324 0.29330507 0.16997924 -0.10180531 -0.46627185 -0.22301473 -0.11019722 0.26983878 -0.2890378 0.20332716 -0.14540575 -0.62390995 0.118007906 0.05458521 -0.22737992 0.20955826 0.509193 0.41866535 0.4274824 0.04078968 0.45229414 -0.12631385 -0.06015208 0.43860367 -0.27004278 -0.3935729 -0.34271416 -0.30924377 -0.21700487 0.11425945 0.39238784 0.13782088 0.35803506 -0.7219565 0.13952088 -0.22362468 0.24206133 0.21906571 0.08186276 0.3885268 -0.21793124 -0.11954446 0.3237297 0.49598554 0.25891408 -0.1815039 0.16350678 -0.42897466 0.13539138 0.2005665 0.39352518 0.32296085
105 -0.033945132 0.35876483 0.034361165 0.3324926 -0.7758453 0.24936527 0.37116206 0.566806 -0.15519261 -0.26214346 0.39643836 -0.10299551 -0.07068515 -0.13249356 -0.115106985 0.055056315 -0.25124827 0.18616274 -0.6635011 0.119017504 0.08964985 -0.33769384 0.38132787 -0.027018705 0.16972335 0.07523749 -0.12857002 0.24710424 0.1907443 0.35182926 0.42332372 -0.21469627 0.41241205 0.39612833 0.6316633 0.04730285 0.11111197 -0.08349202 -0.23884858 -0.555617 0.08449355 0.29209864 -0.20077457 0.27006972 -0.20508516 -0.5280946 0.15153071 -0.09643167 -0.09760572 0.6355429 -0.055748317 -0.08755113 0.18354286 -0.41610217 0.56768733 0.26438117 0.084203504 -0.12625524 0.12170261 0.035073638 0.13977277 0.08026485 0.02790532 0.09509401
30 -0.031552017 0.29833052 0.2990683 0.4065383 -0.6402935 0.2965874 0.4206718 0.5417911 -0.14974669 -0.30417708 0.49480918 -0.14449175 -0.17850901 -0.10501114 0.06553055 0.0049877255 -0.16265233 0.31572345 -0.6777948 0.0859535 -0.121822275 -0.37353992 0.37437797 -0.08968487 0.10670653 0.0120275235 -0.15109566 0.29971325 0.11497808 0.21306516 0.3331733 -0.21938983 0.39512032 0.37558958 0.5033787 0.11036442 0.043276157 -0.14879994 -0.13332815 -0.73914117 0.17376557 0.22392888 -0.26502183 0.034115333 0.038446307 -0.5148059 0.17994058 0.05391048 -0.07124304 0.48383597 0.015253143 -0.09136839 0.16025913 -0.49277565 0.7686246 0.25982025 0.20316462 -0.11298661 0.17675227 0.052375007 0.21547584 0.12869556 0.15365066 0.20546873
55 -0.07493922 0.10969909 0.5019762 0.7861591 -0.37353054 0.2129145 0.20361154 -0.3548646 0.4135066 0.5117972 -0.374618 -0.19302842 0.1273778 -0.04999881 -0.28385216 0.096878275 -0.56175214 -0.2874248 -0.4780493 0.4160201 0.21390487 -0.016843835 0.42997804 0.3614685 0.074248604 0.49295586 -0.71957546 0.36556658 0.23635444 -0.080195285 0.5537706 -0.2503559 -0.023247892 0.16740482 0.16459766 -0.69365335 0.5161285 0.2692268 -0.37403557 -0.10374894 0.055506837 0.68141794 0.5348328 0.4542656 0.37548235 -0.33499753 -0.36197698 0.054901406 0.046658065 -0.008097787 0.37926263 0.38784212 0.13329786 -0.5129757 0.5279919 0.81308144 0.45880017 -0.19166872 0.3438667 0.08245474 0.16140166 0.3603036 -0.2513593 -0.09573113
185 0.2866809 0.8843327 0.2013309 0.6214211 -0.5422803 0.6273222 -0.0522248 0.91761786 0.20097846 0.1744707 0.064032555 -0.33454478 0.76062155 0.282096 -0.77790153 -0.5213683 -0.47574013 -0.18959598 -0.9462336 0.081947036 -0.18555449 0.016473614 -0.62315524 -0.46816117 0.05292546 0.4421524 0.00066981337 0.05284269 0.603965 -0.16464438 0.09418926 -0.14906293 0.22877823 -0.3924081 -0.62101316 -0.1346901 0.18289837 0.4422047 0.1418384 -0.28542623 -0.052629318 -0.17339219 -0.5159668 0.17609662 -0.30815393 -0.42850706 -0.7804455 0.2759764 0.28314033 0.50361836 0.23485042 0.408679 0.30424213 -0.2039928 0.62982965 0.45056748 0.94510055 -0.5989501 0.5122826 -0.56261957 0.26567578 0.14987203 -0.69298065 -0.65792775
95 0.2904403 -0.29717562 0.04044817 -0.18482886 -0.5426338 -0.440976 0.16955951 0.22426875 0.2737864 0.7415878 0.25544727 0.24004188 0.1897138 0.10927572 -0.017815366 0.039127152 0.008735448 0.059770882 -0.18389347 0.29851735 0.043221902 -0.070803836 0.43118212 0.2791022 0.08793664 -0.188283 0.24811547 0.089323506 -0.052781086 0.47806755 0.13240427 -0.26713642 -0.042732578 -0.0429152 0.24828932 -0.022038192 -0.26850381 -0.032597315 0.008729149 0.02008569 -0.15204294 0.5594979 -0.12260079 0.19990191 0.257174 -0.46396282 -0.42391583 0.45576683 0.15581635 0.005974295 0.30765706 0.30824727 0.43282 -0.13017437 0.34502402 -0.121520884 0.55520487 -0.33683032 -0.3417388 -0.1166256 0.057882026 -0.40498555 0.47924316 0.19803551
176 -0.52078605 0.13516869 0.15006629 0.002561688 -0.2425084 0.25859967 0.3199542 0.30249387 0.21089837 0.32683194 -0.12006845 0.44321254 -0.39628002 -0.029475106 0.44927916 -0.040839545 -0.39224693 -0.15476806 -0.35696015 0.003996777 0.1605988 -0.5922588 -0.32226112 -0.32970682 -0.49233645 0.6286982 -0.15039247 0.16256857 -0.07465792 0.4486821 0.709414 -0.30580056 0.0051340056 0.7280054 -0.5781095 0.3732652 -0.06492905 -0.19032353 0.042850077 -0.6466117 -0.005560794 0.6353869 0.1880136 0.3302898 0.48525333 -0.38309258 -0.14826009 0.29062316 -0.0028055112 0.18720222 0.05676569 0.12851371 0.17854504 -0.0833917 0.06050674 0.2585811 0.1157678 -0.23660024 0.12961058 -0.52684057 0.3428742 -0.009088598 0.070017904 -0.16305827
29 -0.016013298 0.2996804 0.0814588 0.393614 -0.6555033 0.26309416 0.37047598 0.4405404 -0.28491756 -0.1746054 0.4147065 -0.076941445 -0.17683229 -0.06469407 -0.09971818 -0.25055924 -0.22310631 0.34050414 -0.54721975 0.038290124 -0.018865125 -0.50453484 0.30954745 -0.19721498 0.2633639 0.010234951 -0.018144852 0.24216302 0.1361331 0.23744304 0.34548056 -0.33432767 0.35646245 0.44200727 0.627185 -0.15372422 0.08648859 -0.017031593 -0.20993511 -0.61915404 -0.014303254 0.19621871 -0.19733417 0.19009396 -0.16805989 -0.54190797 0.106880076 -0.10156176 -0.042579457 0.48925447 -0.05443794 0.14957683 0.18471675 -0.60150045 0.5965766 0.33202848 0.07143163 -0.006427763 0.29302004 -0.12517338 0.36506936 0.060122646 0.08739517 0.2385221
9 0.46647897 0.26074564 0.1453059 0.23472598 -0.35370523 0.10958495 -0.01584979 0.5081221 0.087575555 0.4643298 0.083355695 0.07423227 -0.0821182 0.07928954 0.41524905 0.47529477 0.35525692 -0.051354583 -0.09903396 0.20325162 0.03140156 0.28601393 -0.100643784 0.14276807 0.09406906 -0.2916749 0.34370235 0.38414326 0.258063 0.38739753 0.18295689 -0.41518253 -0.3973319 -0.12519537 0.3690048 0.045506522 -0.046840783 0.24803779 -0.29302076 -0.2435401 0.23493063 0.8227415 0.37822744 0.56876206 0.08517675 -0.20430763 -0.038420267 0.6946519 -0.18722448 -0.22580828 0.028273668 -0.21629064 0.26036263 0.029708631 0.4297149 -0.14944401 0.7798003 -0.5963292 0.35443664 -0.3422945 -0.15308931 -0.37906137 0.4118155 -0.38751298
28 0.36908475 0.27056608 -0.10709996 -0.09017744 -0.56920135 -0.08023716 0.71659046 0.10326691 0.12658255 0.7832956 -0.42883325 -0.54414463 0.12542903 0.3396048 0.2008749 -0.24887297 -0.30303156 -0.41529608 -0.15528536 0.2554992 -0.37966168 0.20554814 -0.2864291 -0.8177086 0.052515402 0.2570131 -0.2722906 0.29987714 0.43120164 0.37890005 0.31015062 -0.26267904 0.48193341 -0.18489034 -0.004017098 0.35549933 -0.11629348 -0.5720766 -0.37592506 -0.41427317 -0.3480521 0.1476098 0.2878378 0.13358492 0.16816942 -0.6241868 0.11407145 0.005201361 -0.20142302 0.24090356 0.023322154 0.30135196 0.059972476 0.01339424 0.45098534 0.52675194 0.28185305 0.03401381 0.4341867 -0.41269907 0.0045479294 0.36431774 0.087504104 0.25423595
85 -0.4593055 0.0356526 -0.14411682 0.5347203 -0.6859357 0.4497515 0.5764183 0.77689093 -1.1158353 0.30413106 -0.050881233 0.08647185 0.19674161 -0.076288976 -0.07442554 -0.24589399 -0.21404241 -0.91745305 -0.108514965 0.4665575 0.12660377 -0.31179678 0.10861708 -0.5743767 -0.0857499 0.3793845 -0.4835656 -0.48058096 0.71146387 -0.07153247 0.63230306 -0.102238044 -0.44148886 0.21226689 0.14054644 -0.07650072 0.40951106 -0.13067745 -0.6547425 -0.28609234 0.5005893 0.545559 0.0024225465 0.0031922986 0.2733966 -0.18224016 -0.17440878 0.4672211 0.48867536 0.15471902 -0.20833148 0.9586572 -0.98947585 0.17148452 1.0846568 -0.48067248 0.2803401 -0.5711221 0.4907301 0.046772245 -0.34818575 0.058522556 -0.10710463 0.34812027
160 -0.4603756 0.36727083 0.3179546 0.14821215 -0.43591744 0.26486355 0.2863856 0.39622453 0.18637866 0.2750637 -0.21951419 0.26740852 -0.26572612 0.009252456 0.21339509 0.0058525624 -0.18268833 -0.030238437 -0.2867754 0.04701079 0.065709054 -0.4777249 -0.30601096 -0.22774087 -0.6162518 0.5522475 -0.37573352 0.053510383 0.0893109 0.41276464 0.6847931 -0.15564266 -0.06292754 0.54766786 -0.6063088 0.33289322 0.33324698 0.01632978 -0.2508919 -0.4535943 0.058039017 0.63537407 0.16710237 0.18241152 0.107848905 -0.41223612 -0.17275384 0.30841988 0.20725182 0.35392094 -0.3489684 0.29716408 0.28883818 -0.27530286 0.032824177 0.14988938 -0.034532905 -0.3597182 0.18985914 -0.5149574 0.4413131 0.24915218 -0.25868195 -0.116692424
38 0.1383451 0.1696171 0.16619216 0.025988989 -0.57341033 0.40908575 0.27986255 0.26785418 0.15791555 0.7074871 -0.16381899 -0.5048705 0.28217953 0.18485187 -0.05456896 -0.086181596 -0.3456792 -0.18765308 -0.16119814 0.25586993 -0.11207335 0.17846717 -0.16553405 -0.57198554 0.02379069 -0.09667353 -0.2233142 0.12746125 0.5978929 0.51421064 0.5236856 0.039715573 0.48776633 -0.03028461 0.095819935 0.4192054 -0.18910341 -0.5902329 -0.48505324 -0.15376075 -0.4432883 0.04435421 0.40931603 0.21531655 0.29590094 -0.61197966 0.06740095 0.030099928 0.23987618 0.23881048 0.10602615 0.39730045 -0.14852479 -0.14810725 0.22088316 0.486671 0.26401985 -0.25036278 0.22098503 -0.48115477 0.12672597 0.21482976 0.3245171 0.24122994
112 -0.2051418 0.36687112 0.20647916 -0.027263187 -0.30347112 0.53250885 0.29158023 -0.20811614 -0.41481557 0.45842224 0.33689335 -0.3494668 0.73902875 0.15532646 0.17823316 -0.54553866 0.0734317 0.54708123 -0.66193086 0.34595048 0.23978573 -0.14142734 0.03973348 0.2976851 0.0076707853 0.08490422 0.026753573 0.4235952 -0.05431455 -0.12531938 0.61342835 -0.3011475 0.1342479 0.42280635 -0.6590935 0.517407 0.13317502 -0.19327861 -0.3192808 -0.108743794 0.08391406 0.18669392 0.35815424 0.19730614 0.30168298 -0.7423004 -0.50309163 -0.37233904 0.13890499 -0.19812116 -0.5264851 0.12358305 0.66055727 0.026294837 0.36105525 -0.34277505 0.036182158 0.492759 0.28067356 0.38567632 -0.96618897 0.20204756 -0.04688613 0.06906117
135 0.18299833 0.5395395 0.11947251 0.63246495 0.10965942 -0.33235255 0.88824725 0.34426197 0.61521965 0.2523153 0.59611833 0.092412725 0.96612924 -0.25579897 -0.348754 -0.27506566 -0.08940365 -0.82065403 0.26581016 0.46879667 0.0587565 0.08268533 -0.35132128 -0.3462313 0.57542604 -0.013853735 0.19532385 0.8684447 0.2623885 0.762473 0.5730699 -0.15988566 -0.37174204 0.7512862 -0.009776419 0.04990001 -0.305768 -0.25655574 0.16083686 -0.2473715 0.7047681 0.36907953 -0.2160131 -0.4192288 0.8286013 -0.51377106 0.1490615 0.04591856 -0.08129128 0.37961313 0.23920523 0.19319572 0.10416257 -0.3769208 0.3696178 0.13583322 -0.104836985 0.1981418 -0.4620543 -0.03484163 0.19365445 -0.1501791 -0.33931798 0.41332096
193 0.49983403 0.47557 -0.074834354 0.14408222 -0.28648847 0.8353583 0.46025923 0.2647459 0.25608265 1.2569174 -0.28506392 -0.026339814 -0.24908975 0.024915002 -0.46330783 -0.4048626 -0.1946794 -0.0957767 -0.29088855 0.1226796 0.5725072 -0.03230171 -0.23803432 -0.022083217 -0.14150055 0.18482223 -0.2892457 -0.13266094 0.29087394 0.4800589 0.4551344 0.035177205 -0.22077711 0.3638584 0.30137998 -0.37885416 0.68629026 -0.15413003 0.2855148 -0.41064018 -0.23595525 0.46346328 -0.103699744 -0.17206447 0.115205586 -1.0378215 -0.25673708 -0.35418233 0.19625333 0.1259829 -0.031926725 -0.47708237 -0.3148398 -0.07099787 0.6198819 -0.31255713 0.35787502 -0.4124412 -0.12324837 -0.19251236 0.022521622 -0.27509794 -0.55738574 0.14402764
31 0.08560458 0.41183394 0.12072398 0.4893238 -0.5827614 0.40787068 0.4300293 0.5602714 -0.12511493 -0.16115712 0.45028841 -0.042319678 -0.115519255 -0.1501604 -0.04821083 0.21199496 -0.29432356 0.39931402 -0.61662024 -0.010759558 -0.034012947 -0.5157408 0.4560141 -0.19182263 0.23042774 0.05198219 -0.055539943 0.21604486 0.18032973 0.26074752 0.34729645 -0.15815225 0.35783723 0.4172038 0.6934819 -0.107084356 0.0056070876 -0.14754498 -0.18832375 -0.60216933 0.046582285 0.28698766 -0.2835742 0.27631605 -0.013714447 -0.4393494 0.18460132 0.06039358 -0.08353442 0.48374325 0.10765839 0.038191214 0.29166982 -0.21489742 0.68121845 0.098245114 0.100502536 -0.017433627 0.07772945 -0.21625338 0.17998546 0.23838127 0.09204744 0.11274441
152 0.32861117 -0.1933414 -0.026485277 0.15074398 -0.6751221 -0.15533008 0.32474637 0.058080528 0.1194646 0.84526306 0.4624571 -0.15482587 0.14009777 -0.2564441 -0.23800498 -0.16702436 -0.09298963 0.24568975 0.26641527 0.337261 -0.034282193 -0.38929155 -0.016815472 0.7625652 -0.04660565 0.5332581 0.08075377 0.17679064 0.2061091 0.8108036 0.23166768 -0.58533406 0.06591739 -0.059324283 -0.1378326 -0.05307425 -0.37953418 0.1489745 0.2816499 -0.013249314 0.26782003 0.01902644 0.21500361 0.29072717 0.011457467 -0.18446058 -0.31939936 0.505972 0.5220689 -0.044881586 -0.11955919 0.13444111 0.09130168 -0.28184962 0.55264634 -0.43801755 0.21622759 -0.083513826 0.24128084 -0.46166036 -0.06718343 -0.30197728 0.52315944 -0.088471055
94 0.24379486 -0.29278627 -0.008057202 -0.15541063 -0.47890717 -0.6213005 0.0863222 0.03835069 0.012108938 0.8266364 0.3802376 0.33281162 0.18867068 0.082091786 -0.04112072 -0.0052643353 0.12672734 0.07123421 -0.2372997 0.4137681 -0.09927122 -0.08874341 0.21438815 0.2828949 0.2063054 -0.09713693 0.37916717 -0.019052474 -0.1510836 0.41578177 0.25185376 -0.27583882 -0.15263595 0.041982118 0.37320685 0.034120437 -0.34702644 -0.08580351 -0.06626683 -0.0944275 -0.29108748 0.43674883 -0.0472517 -0.13120794 0.2951556 -0.5903007 -0.46573848 0.49712852 0.006736123 -0.23307039 0.34005967 0.29994878 0.397687 -0.3533837 0.548547 -0.014960378 0.49368417 -0.17791595 -0.061480686 -0.22709067 0.06592804 -0.44277328 0.20999272 0.03473606
32 -0.04406314 0.3515417 0.1988279 0.6438224 -0.6211457 0.17824785 0.3318649 0.51782054 -0.13792874 -0.220318 0.37762117 -0.025863908 -0.050997272 -0.0855774 -0.02732286 0.007634525 -0.17822228 0.41323215 -0.7609396 0.037065256 -0.15280335 -0.5623503 0.4781756 -0.24849083 0.26231068 0.008636968 0.0689781 0.078315064 -0.0513335 0.34362298 0.2358026 -0.1765008 0.30156717 0.42939764 0.74905175 0.019043984 0.10281904 -0.058840074 -0.22668359 -0.6123632 -0.013035176 0.31314376 -0.090759926 0.21274608 0.0661145 -0.48661143 0.13218863 -0.25565726 0.005066537 0.58845395 0.03270418 0.031749796 0.33024693 -0.38501522 0.67771626 0.13263923 0.08546528 -0.055417217 0.1681669 -0.23229098 0.16576731 0.14104211 0.05186693 0.23437676
146 -0.5397177 0.00040370165 0.5785058 0.44126785 -0.09404125 0.031517364 0.37277043 0.6490052 0.18599473 0.55269724 -0.13753285 -0.29827496 0.016586954 0.056099005 -0.15384935 0.11259471 0.2825946 -0.36987436 0.23977457 0.9182193 -0.2676943 -0.9294517 -0.05025253 -0.23025186 0.7749501 -0.56869733 -0.045040198 0.3868437 -0.3421688 0.5842828 0.064389125 -0.69024163 0.11278429 0.37594762 -0.31513882 -0.03395122 -0.6846368 -0.03808507 -0.15951179 -0.56167984 0.32160115 0.2150648 0.0022350561 0.39697778 0.35437158 -0.34196484 -0.15625016 -0.6393214 0.086864784 0.40624374 -0.091526054 0.17491485 0.14236973 0.21430658 0.5779848 0.101597875 0.17879175 -0.7075805 -0.75347394 -0.3858003 0.1700667 -0.44525504 -0.6657188 0.1131458
150 0.21904472 -0.43186992 -0.048145186 -0.25170654 -0.47662097 -0.3187839 0.2814102 0.5808576 0.086371064 0.29427084 0.16046442 -0.1633294 -0.009189373 0.38595083 -0.18857823 -0.08782817 -0.18577948 -0.012271559 -0.23277384 -0.044048734 -0.33186692 0.12647288 -0.0623199 0.15436846 -0.09735637 0.1493319 0.20971446 -0.11625947 -0.20904642 0.4630264 0.88850504 -0.73384583 -0.48778912 -0.20867467 0.17885277 -0.16261233 -0.031481013 -0.210076 0.011195457 0.21588919 -0.19680773 0.49049932 0.17370519 0.8774499 -0.13847783 -0.27435738 -0.30400643 0.70179486 0.0792733 -0.026467077 -0.16091806 0.1372716 0.40904242 -0.32734993 0.49524775 -0.0551071 0.4082656 -0.45805013 -0.3342614 0.35273603 -0.027841968 -0.010285242 -0.31549963 0.20042372
58 0.0011526899 0.14141566 0.43170547 1.0006499 -0.3022109 0.32262692 0.15684699 -0.3732683 0.29756945 0.36565655 -0.11869499 -0.15849821 -0.069279455 0.086407006 -0.36106166 0.033370543 -0.7079756 -0.07017151 -0.33497086 0.5923992 0.114727795 -0.083783634 0.2628019 0.40429944 -0.07715032 0.5055697 -0.8650018 0.22854254 0.4383479 -0.28118214 0.4718579 -0.30265546 0.0012971741 0.2147128 0.021191388 -0.4967553 0.38464916 0.19768986 -0.38879406 -0.28671193 0.009109428 0.60199565 0.473784 0.5303483 0.40660414 -0.49388456 -0.13348559 0.08576992 0.24250968 -0.3292206 0.29172674 0.5164354 0.27903137 -0.38247615 0.56185657 0.75567734 0.4304682 -0.2896172 0.21087685 0.14160228 0.055057805 0.3422544 -0.15954635 -0.14171419
62 -0.26454177 0.5423472 0.30095553 0.55085164 -0.9089592 0.3422584 -0.37490883 0.09207544 0.72245896 0.3477645 -0.4884553 -0.5597747 -0.4420513 0.2716335 -0.42953217 -0.15536678 -0.7723735 -0.062267516 0.08424427 0.7692231 0.047454633 -0.4784606 0.4694319 0.23790179 0.030427743 0.15534139 0.5112019 -0.08508105 0.5181781 0.10171448 0.37857524 -0.34151262 -0.57730806 0.28095582 0.63575155 0.16049878 -0.39721859 -0.82294154 0.030905675 -0.05226105 0.53126705 0.2852449 -0.00066601543 -0.14033456 0.19483276 -0.53084 0.041308176 0.18221147 -0.48424888 0.1690788 0.092227824 0.4535723 0.94950885 -0.5615334 -0.3659638 0.6254288 0.3550636 0.03933185 -0.025901487 -0.18152303 -0.05605441 -0.05381798 -0.009917651 -0.16391836
175 0.25676325 -0.17965937 0.326833 0.40606958 -0.9081692 -0.38415793 -0.101566136 -0.19499725 -0.3761663 0.9010377 0.27321082 0.23989172 0.120567456 0.29251987 0.2836251 -0.5664813 0.14171338 0.23458542 0.05832472 0.2943573 0.2519176 -0.13636114 0.04313587 -0.2764315 -0.18724862 -0.22029048 0.3202245 0.11368731 0.1748178 0.4828213 -0.16717464 0.022840941 0.3181726 -0.13649814 0.387556 0.09848235 0.021941211 0.1482818 0.05218516 -0.27441612 0.34549573 0.61514217 0.20685245 0.4047848 0.15921673 -0.2991536 -0.7956765 0.42073527 0.27617347 -0.12259789 -0.25899747 -0.060586147 0.3721475 -0.5804318 -0.024592437 0.098136514 0.10660629 -0.61637336 0.14804849 0.19534379 0.2573488 -0.33585563 -0.07073417 -0.13039999
163 -0.3543052 0.36752895 0.20239355 0.20562251 -0.32510388 0.3429578 0.06283774 0.35651693 0.16766931 0.3596179 -0.03957547 0.50989705 -0.28836077 -0.14405003 0.25832397 -0.12507443 -0.5016746 -0.12931292 -0.19042501 0.020526782 0.31755397 -0.40145907 -0.39286393 -0.35905248 -0.5635883 0.488176 -0.27065328 0.24225684 0.13221388 0.5924188 0.6765774 -0.12524968 -0.07343565 0.70340514 -0.25254485 0.29907468 0.26746383 0.053448416 -0.26210573 -0.5241024 -0.15573885 0.62657595 0.22516452 0.3743246 0.18417487 -0.3309974 -0.07459836 0.17562449 0.12791684 0.21746352 -0.2909791 0.3906078 0.27816588 -0.021475337 0.025676409 0.10653292 0.1442724 -0.14561346 0.25718334 -0.5489651 0.37599382 0.16281524 -0.347224 -0.28880945
8 0.13685668 -0.13989957 -0.010306636 0.44488165 -0.35626084 0.08643782 0.14541247 0.015154339 -0.22909462 0.39528087 0.1416111 0.31121358 -0.23708929 0.10490384 0.047561243 -0.3989216 0.033812694 0.07105794 0.29817626 -0.26232114 -0.08282974 0.49346396 0.27616173 -0.116727024 0.40298462 0.4160618 0.7579719 0.106965885 -0.110456705 0.35768872 0.5011778 -0.2863797 -0.17812438 0.16203497 0.42187828 -0.09298985 -0.16758719 0.4342227 0.12695472 -0.59351796 -0.16451435 0.5069483 0.28707713 0.18635921 0.04175402 -0.48197827 -0.69097555 0.38402 -0.117038615 -0.1560229 0.14354356 0.62567806 0.39117455 -0.04889743 0.24206924 0.24254242 0.6090311 -0.07295852 -0.42296758 -0.500446 -0.121001504 -0.53057003 0.13914938 0.53849953
144 -0.07277584 -0.053745672 0.22805412 0.80047446 -0.14182472 0.13259995 0.38297138 0.5215603 0.25331014 0.4753756 0.32236096 -0.028052786 0.36009818 0.09154117 -0.20429073 -0.19562787 0.10422614 -0.41959116 0.37214154 0.494653 0.31168482 -0.5209981 -0.31607196 -0.12013719 0.53639746 -0.4779031 -0.035299513 0.571618 0.056847688 0.30272985 0.39366633 -0.2526287 -0.0515783 0.35515627 -0.2729564 -0.010153281 -0.14141823 -0.22224948 -0.3262287 -0.39591715 0.42949075 0.28507456 -0.18401936 0.1165484 0.51385117 -0.4022911 -0.014656595 0.09825903 0.04908953 0.39737007 -0.18526697 0.12505424 0.21111229 0.013670757 0.473349 0.39884728 0.16874741 -0.33843026 -0.31658444 -0.26573047 0.25916547 -0.21422271 -0.5739541 0.34648138
45 -0.22679165 0.46553788 -0.2590036 0.047155857 -0.887953 0.9614753 0.21396713 0.30927092 0.15993762 0.08018495 -0.23504755 -0.07482721 0.13082576 -0.24536987 0.3316446 0.012548907 0.5424302 0.13588952 -0.23145102 0.71745956 -0.32683071 0.65827996 -0.21013835 -0.14681476 0.104725935 -0.13612191 0.028025612 0.21004088 -0.22799782 -0.42868522 0.3355958 0.25270516 -0.1744011 0.22745025 -0.17172489 -0.3918851 -0.420571 0.1370295 -0.75642496 -0.26982185 -0.17639285 0.8813352 0.51873165 0.7382707 0.23314378 -0.49776852 -0.19281001 -0.13411847 0.12953308 0.2945984 -0.5619013 -0.28131828 0.2648875 -0.22691841 0.06268375 -0.36669 0.5001622 0.5809282 0.04319392 0.21140417 0.005948509 0.1448343 -0.19838333 0.034299683
179 -0.60296607 -0.044638067 0.1311853 0.19997433 -0.47458777 0.24322693 0.37910047 0.37725285 0.14339353 0.29102677 -0.19161785 0.50176585 -0.3813319 0.16519415 0.37836567 0.06919947 -0.40434247 0.021540448 -0.26221812 0.10415435 0.3894268 -0.45769155 -0.37423468 -0.35411608 -0.55798507 0.5720125 -0.22084607 0.21325715 -0.042347588 0.4115862 0.82482535 -0.41740525 -0.009029986 0.67011416 -0.56226623 0.38685462 -0.10058033 -0.14876607 -0.07646219 -0.41979247 -0.117840126 0.4676205 0.15594798 0.45074448 0.23850965 -0.3873265 -0.124200046 -0.018918017 0.073640324 0.13271017 -0.16550292 0.026268907 0.24261297 -0.075033024 0.060108725 0.103077315 0.17981333 -0.27379248 0.34033096 -0.6807405 0.42218208 0.073543854 -0.047494695 -0.12657514
196 0.27364528 -0.2566418 -0.120124936 -0.047036245 -0.60436934 -0.56294006 0.22619921 0.07068916 0.14758869 0.6905238 0.34054822 0.21681575 0.14170066 0.03163285 -0.2619472 0.117309324 0.11676618 0.11956984 -0.20055215 0.40604645 -0.014564356 -0.00059995864 0.31780043 0.3308024 0.20416772 -0.2881885 0.48465508 -0.21992618 0.09822299 0.32403168 0.32486504 -0.4426863 -0.0012797969 0.017132599 0.25745985 -0.023951547 -0.29605886 0.06605075 -0.1327564 -0.027315017 -0.1853714 0.55646706 -0.15860319 0.030349072 0.40436912 -0.63259774 -0.5034601 0.34139457 -0.039919067 -0.118253484 0.3045563 0.21911478 0.3745424 -0.118285514 0.40329933 0.018740311 0.61060256 -0.27507856 -0.19251825 -0.08702064 0.0766961 -0.43192944 0.4746644 0.12528901
115 -0.10357644 0.15923811 -0.11386059 0.10020979 -0.84036595 -0.28094494 -0.15100794 0.71653944 0.26504424 0.70729536 0.5548069 0.11967012 0.21380287 0.024747143 -0.14001788 -0.13787462 0.09684657 0.37961334 0.33376712 0.15422936 0.24830581 0.19406131 0.20646133 -0.071170546 -0.49359602 -0.033292055 -0.1099917 -0.3581717 -0.30542672 0.6658945 0.1804626 -0.28270406 0.16661051 0.018236974 0.3183405 -0.39098433 -0.3530167 0.30824026 -0.39482883 0.045089662 -0.11252011 0.4345728 0.38015652 0.24400002 0.19609137 -0.6731677 -0.5520094 0.23000327 -0.2117307 -0.26865783 0.34333304 0.46852145 0.30823335 0.100260854 0.3750205 -0.11414219 0.3635263 0.08992426 -0.071038455 -0.011427256 -0.33474618 -0.24370383 -0.079144396 -0.18364255
6 0.18934533 -0.4607905 0.095421776 0.1396305 -0.29364404 -0.35309303 -0.24381863 0.27138796 0.2138592 0.391917 -0.08159577 0.25242123 -0.38663268 0.4550017 -0.5682563 0.0637964 0.42656818 -0.160656 -0.054757714 0.44279945 0.04037152 -0.18099874 -0.19552009 -0.124278896 -0.10152956 0.2568349 0.5427432 0.49311808 0.1598626 0.89177233 0.44315115 -0.2763764 0.0022224337 0.24928394 0.40319318 0.19930536 -0.06969348 0.366005 -0.1895082 0.19727774 0.048211217 0.09052563 0.09764207 0.06701122 0.10996389 -0.28026873 -0.60455114 0.32412887 0.23260477 -0.20465325 0.49353385 0.15389 0.69626796 -0.13332373 0.6480474 -0.21501634 0.18198317 -0.42494643 0.29156598 0.14443773 0.15381856 -0.07038615 0.5020376 0.5805372
181 -0.1877202 0.02400196 0.09078971 0.79434705 0.057430398 -0.024055038 0.6680482 0.57151824 0.24966455 0.47125524 0.27896953 -0.16531573 0.35469985 0.006087349 -0.4274976 0.028360518 0.29335597 -0.45329744 0.3335442 0.5069386 0.22262886 -0.49461266 -0.36857542 -0.26137736 0.44388708 -0.21107502 0.090993285 0.35014516 -0.0506671 0.27972192 0.45463178 -0.37257895 0.16042672 0.2937678 -0.2232672 0.07144155 -0.23360707 -0.37338603 -0.31066033 -0.2728291 0.45299628 0.3468958 -0.16078119 0.2824113 0.4502654 -0.6886069 -0.116178356 0.04818877 -0.072285526 0.33330533 -0.005844174 0.19903834 0.043910928 -0.1549467 0.37678126 0.22761856 0.010834556 -0.22458774 -0.25327992 -0.3257538 0.25503495 -0.16420944 -0.6372074 0.14631177
79 -0.54339373 0.38055813 0.24767593 0.15399525 -0.43089005 0.52490944 0.33795342 0.47776142 0.24899982 0.28961813 -0.15647066 0.20499532 -0.18952487 0.093445525 0.30975044 -0.019204829 -0.3440539 -0.07389981 -0.079624936 -0.07203437 0.13781968 -0.43260086 -0.3127412 -0.20734581 -0.59165365 0.5482171 -0.26738474 0.15810095 0.065974854 0.3641026 0.62481755 -0.38822892 -0.12349315 0.6879203 -0.53742886 0.3013373 0.25532898 -0.014702023 -0.21742655 -0.33494538 0.19322342 0.7109431 0.18438992 0.20634742 0.06358292 -0.34598282 -0.098230086 0.18796185 0.10999648 0.22244143 -0.12843667 0.1619651 0.3333031 0.025830356 0.21883486 0.18878105 -0.07455711 -0.34752268 0.31477237 -0.7236706 0.20684914 0.25810012 -0.022492224 -0.31483498
173 -0.20063537 0.4186505 0.21663368 0.44241807 -0.95684576 0.26397175 -0.37137112 0.36705625 0.6387907 0.4739994 -0.51097816 -0.6189965 -0.59520835 0.30783045 -0.39884138 -0.2685159 -0.6455711 -0.19056463 0.013438802 0.7290026 0.01881853 -0.42041126 0.5424049 0.12601985 0.0002859777 0.29320374 0.5127837 -0.09050653 0.5655025 -0.056517467 0.5109698 -0.3974416 -0.68108284 0.2743548 0.2844136 0.21346655 -0.35832483 -0.80829316 0.14355467 -0.06339201 0.575863 0.2517002 0.06518977 -0.031810213 0.263835 -0.31579354 0.22389075 0.21261853 -0.53733885 0.13769236 0.08997338 0.21420035 0.6943749 -0.75740266 -0.19729896 0.7054898 0.44860786 0.020243641 -0.023467561 0.035831288 0.08518635 -0.10548719 -0.006742301 -0.17272598
69 -0.4486967 -0.0742939 -0.001273461 -0.09531394 -1.0116647 0.15277836 0.34003153 0.07026499 -0.27637833 0.5049312 0.020835599 -0.7319073 0.06759133 -0.81486094 -0.380988 0.32451177 -0.549363 0.21315323 0.33266103 0.36331627 -0.25271845 -0.13086367 -0.35105994 -0.60503 0.22729519 0.099025115 -0.4264577 0.45002565 0.75744146 0.10940708 -0.28279567 -0.1592279 -0.5995251 0.41077924 0.03894746 0.42783123 1.0291525 0.61506903 -0.20493685 -0.3965483 0.115629196 0.21529959 0.30214226 0.54494405 0.07774722 -0.92731357 -0.13366419 0.32803914 -0.009147348 0.6253503 0.5719918 0.11531042 0.41277376 -0.30895406 0.32335836 -0.0020257127 0.43548757 -0.67568463 -0.0071707154 -0.34238327 0.0100899115 0.4600194 -0.45882517 0.3037001
35 0.006726817 0.29696137 0.25101656 0.74394566 -0.56024474 0.36447716 0.4194797 0.4404709 -0.23302029 -0.27733472 0.4591204 -0.24178952 -0.06984802 -0.09472173 -0.0187586 -0.012417748 -0.19464417 0.48439705 -0.71359783 0.05962009 -0.28139725 -0.50142086 0.58182544 -0.35988194 0.14068371 -0.17931563 0.0034317658 0.29023206 0.16307847 0.2661063 0.46336648 -0.1867131 0.21332505 0.5246016 0.5440773 -0.22099917 0.11435056 -0.07252271 -0.086297445 -0.635059 0.029923538 0.1791778 -0.30630705 0.118325606 0.0559266 -0.4154593 0.1570612 0.046075676 -0.09362221 0.38235405 -0.08868283 0.06347181 0.3215754 -0.246661 0.6585631 0.09922313 0.18442817 -0.023290396 0.2053949 -0.2552829 0.4815023 0.22856823 0.24682455 0.2777618
113 -0.041774705 -0.24817242 -0.4241608 0.21652527 -0.14768459 -0.22544178 0.16633967 0.44018397 0.15993042 0.36018127 0.1703656 -0.045272525 0.23468257 0.078741014 0.16970064 -0.7335281 0.03784903 -0.058900487 -0.19145568 0.16443388 -0.4528279 0.33085665 0.25204766 0.44468594 -0.023958625 4.447914e-05 -0.071914986 -0.06836866 0.13246994 0.6202528 -0.09893802 -0.6652008 -0.2228111 0.2689925 0.09969148 -0.12029465 0.2022386 0.2984568 -0.41693285 0.005465319 -0.043437243 0.30799842 0.081070356 0.091382734 0.30391484 -0.5527387 -0.44316941 0.6529091 -0.06964225 -0.30331862 0.110851675 0.14770477 0.5411914 -0.30231625 0.4991814 0.14383602 -0.008025301 -0.6325263 -0.094062276 -0.19909626 0.5742689 -0.5989077 0.67543274 0.24510023
60 -0.2282722 0.012376976 0.20682678 0.91375244 -0.4268318 0.30614585 0.13988787 -0.5370222 0.35029662 0.5229401 -0.2600682 -0.028214376 0.023663312 0.122001685 -0.30260378 0.060499232 -0.7112385 0.037146486 -0.25478414 0.55879706 0.25364846 -0.011893906 0.37904003 0.18131295 0.018454654 0.63330597 -0.73540163 0.5069201 0.34269705 -0.25658637 0.45922035 -0.369045 0.029746585 0.054471143 -0.02229169 -0.5333762 0.31011385 0.061110955 -0.22957578 -0.15760511 0.08032084 0.5118341 0.41083145 0.7074127 0.22342795 -0.4491925 -0.052993402 0.06607182 0.26752642 -0.27819946 0.16795953 0.32401597 0.25256932 -0.5594135 0.744614 0.7351614 0.31412706 -0.48647562 0.31927985 -0.012768759 0.30837005 0.3784653 -0.26470247 -0.2842859
34 0.049243994 0.29682812 0.28734183 0.60085005 -0.6653096 0.2608424 0.42779282 0.55393577 -0.1348699 -0.11548864 0.6371453 -0.20675464 0.0020995492 0.07056475 0.028490791 -0.02647434 -0.11419493 0.4782106 -0.68429655 0.013466192 -0.13637175 -0.60982406 0.50290376 -0.2964485 0.15734811 0.043201815 0.0039677345 0.113272704 0.10409252 0.18834455 0.41526443 -0.16771452 0.23288916 0.43848774 0.5258498 -0.0969355 0.16089344 -0.037210673 -0.18371326 -0.45895672 0.14280556 0.15881349 -0.25358152 0.26891842 0.0630465 -0.40318385 0.26568022 -0.04392058 -0.003777947 0.40910202 -0.013755486 -0.010463668 0.33258662 -0.45490807 0.6466106 0.084003784 0.13153856 -0.024399033 0.25799385 -0.1961607 0.3953381 0.3183946 0.17431772 0.3198223
36 0.058617074 0.3149067 0.3985153 0.8200007 -0.60841274 0.33058363 0.45998994 0.36925286 -0.120033786 -0.36721918 0.4532747 -0.20354864 0.0119296545 -0.1117227 0.08641532 0.087897465 0.0030305241 0.47866952 -0.8102602 0.0609314 -0.3822886 -0.5874536 0.67213213 -0.47730982 0.089308925 0.04010044 0.098749176 0.17041239 -0.030490616 0.3043869 0.36364543 0.025568591 0.16261901 0.5269058 0.5853846 -0.087193124 0.05180408 -0.20629808 -0.05867121 -0.54558 0.05199119 0.19074683 -0.33329523 0.20431738 0.20139264 -0.45889482 0.06649107 0.10823716 -0.15835051 0.3814429 0.09618332 -0.03640281 0.3482505 -0.31005082 0.7600907 -0.017646085 0.10167249 -0.04518348 0.21617994 -0.2979464 0.44792145 0.3465248 0.1681767 0.2780403
103 0.32152614 0.28111914 0.07790517 -0.08990525 -0.45258498 0.23382594 0.7120223 0.14497928 0.21369816 0.61728966 -0.26327562 -0.7864121 -0.0074174944 0.29488865 0.15517531 -0.31791604 -0.3165984 -0.5482543 -0.08075178 0.3215389 -0.37214586 0.10700483 -0.30273828 -0.88295084 0.0058806194 0.10071855 -0.3202775 0.2375143 0.2933932 0.58051825 0.4782471 -0.1140731 0.5561231 -0.26050743 0.11911777 0.4726564 0.097110316 -0.34722176 -0.61378205 -0.31941655 -0.43888628 0.24603473 0.40367517 0.07273179 0.2040893 -0.49663424 0.08306505 0.079463325 -0.20411842 0.038925365 0.08316651 0.19139922 -0.052275423 -0.15037599 0.51084137 0.5886144 0.24520002 -0.04074007 0.3025392 -0.3628471 0.07003779 0.2928875 0.14122917 0.22757475
48 0.89836603 -0.24019372 -0.5914022 0.32501832 -0.97485614 -0.088108554 -0.05245107 -0.19421323 0.22490409 0.34306803 0.19447365 0.2781963 -0.117581554 0.12665883 -0.18588988 0.0031024069 -0.28095195 -0.30950087 0.14915311 0.13319252 -0.028892126 -0.26938558 0.16777225 -0.13280939 0.08958411 -0.34384942 -0.058769777 -0.094508566 -0.020933136 0.576797 0.2766003 -0.47384864 -0.12463679 0.22272743 -0.06450549 -0.008470782 0.085817255 0.03684805 -0.068783104 -0.39493817 -0.2509075 0.4455404 -0.20433867 0.59446746 0.1364482 -0.47917956 -0.60773104 0.497253 -0.098609515 0.04650953 -0.07707964 0.40756372 0.50640875 0.19077943 0.09611269 -0.24265689 0.38194475 0.10750923 0.4546183 0.15061675 -0.06948227 -0.678917 0.28565383 -0.15977904
120 0.3280782 0.021382805 -0.30872628 0.29750565 -0.97924393 -0.25313127 0.09247867 -0.008463896 0.10175718 0.16019288 0.093381986 0.26203707 0.4090352 0.29910147 -0.2664286 0.10231628 0.12528832 0.06272478 0.2037196 0.44670007 -0.27409077 0.26998156 0.028787771 0.26817623 -0.15353945 0.29137102 -0.36215073 0.19608805 -0.2963142 0.38452533 0.32032076 0.05998842 -0.4215114 0.13982205 0.4332421 0.44286013 -0.42005607 -0.2582581 -0.23394708 -0.4172521 0.023300672 0.43640488 -0.16906337 -0.014197092 -0.01958098 -0.4900234 -0.54656315 0.29236934 0.309381 -0.4586297 0.13679084 -0.047697652 0.6359521 -0.35558861 0.33446416 -0.20962146 0.39267883 -0.51556015 -0.6043324 -0.26879475 -0.04002054 -0.3332306 0.4567959 -0.12139989
188 0.2251763 1.1757482 0.16178036 0.47510117 -0.44825506 0.5523015 -0.12675226 0.9191515 0.28392595 0.23141328 0.119373605 -0.35415685 0.90185237 -0.007167863 -0.6195175 -0.6089579 -0.62609154 -0.36556527 -0.97365725 0.17192969 -0.06438408 0.14405125 -0.60849637 -0.18039665 0.1070459 0.13376996 -0.09999664 -0.12262046 0.71824175 0.01884456 0.17241922 0.10745532 0.22384682 -0.33006996 -0.25761917 -0.046279065 0.24884069 0.63275343 -0.0053052823 -0.29250386 -0.14386877 -0.30949554 -0.46163693 0.014163633 -0.16042645 -0.3944407 -0.8223497 0.2562612 0.26204598 0.4384691 0.19071738 0.603745 0.2354931 -0.35508794 0.69613075 0.42307067 0.9740517 -0.6848947 0.575456 -0.61323243 -0.008129371 0.20123671 -0.7942736 -0.840115
46 0.35302326 -0.09445259 0.08833499 -0.07492262 -0.6713949 0.57171625 0.14134586 -0.04948887 -0.07898607 -0.0027570312 0.14279588 0.22196253 0.23893796 0.07717416 0.07457479 -0.6588467 -0.21888587 0.24324392 -0.38849133 0.8262956 -0.16284333 -0.24216223 -0.788822 0.37103364 -0.18292443 -0.11991525 -0.37880078 0.8383048 -0.21840294 -0.37469256 -0.08341599 -0.26589897 -0.13701904 0.48875856 0.10517642 -0.027373819 -0.19932082 -0.32914793 -0.11588243 -0.13438192 -0.3175762 0.2984392 0.3129136 0.881423 0.31949133 -0.5388153 -0.1473747 -0.18658608 0.26176614 0.14108396 -0.39019403 0.23062594 0.32443574 0.533704 0.5569548 -0.6166817 0.22607729 0.36473915 0.28376126 0.3091333 0.16023132 0.13881147 -0.12161912 -0.05590307
5 -0.004273341 -0.072433524 0.006595165 0.39187914 -0.4260562 -0.076689266 0.099621445 -0.043553438 0.3804692 0.85078543 0.67580366 0.34596244 -0.3016805 -0.063337445 0.1301107 0.40824714 -0.02171664 0.027743394 -0.13641512 0.8084299 -0.16967611 0.2997259 0.13815062 -0.05450489 -0.43615618 0.18547899 0.57977957 0.052280914 0.2664572 0.43429533 -0.047164764 -0.39895067 -0.14888878 -0.2182951 -0.22909117 -0.1312325 0.1652106 -0.13960196 -0.1773532 -0.2788129 -0.2654295 0.32849455 -0.16671643 0.18793565 -0.21390787 -0.46462286 -0.45557943 0.90197355 -0.075091176 0.19707438 0.05150546 0.2618111 0.4696704 0.112258844 0.6405054 0.09626503 -0.17345054 -0.18040805 -0.4572231 0.2590289 -0.11303017 -0.462708 0.3345876 0.13209155
137 0.3533986 -0.3553627 -0.18013546 -0.021831965 -0.6239803 -0.4706735 0.0875234 0.060174722 0.14543056 0.7701833 0.34934166 0.16616026 0.13067223 0.20469409 -0.26358622 -0.06227589 0.13015275 0.2850174 -0.1465519 0.40208527 -0.15132071 -0.0065883445 0.29671633 0.2584157 0.41302395 -0.20514335 0.2919554 0.06586647 0.035713166 0.4043827 0.08789381 -0.35330102 -0.017081695 0.0036173775 0.23520963 -0.13701056 -0.16957195 -0.16262129 0.02666368 -0.23765677 0.047863793 0.506982 -0.1255541 0.031408902 0.42167902 -0.7147906 -0.326568 0.7037691 0.06967345 -0.22373284 0.43464494 0.16127807 0.32200107 -0.05877318 0.5911778 0.08934009 0.51909417 -0.21985345 -0.08813596 0.077703014 -0.1593792 -0.4187635 0.3519609 0.12638058
47 -0.499008 0.2935619 0.086096756 -0.14924143 -0.71513945 0.7976632 0.31129414 0.22640578 0.6817632 0.6738233 -0.3230362 0.13733752 0.48897055 -0.100384586 0.023355996 -0.3298221 0.655397 0.32908446 -0.62216115 -0.07424723 0.21208213 0.0004291609 0.113717616 -0.30793387 0.4136351 -0.025425129 -0.089565046 1.0486445 -0.055020947 -0.022774788 0.11400884 -0.3722918 0.08899566 0.3548729 -0.33758584 -0.36443686 0.5274783 -0.03511498 -0.29930747 0.042241096 0.2445473 0.27949128 0.82621855 0.498636 0.087100685 -0.3161599 0.06291709 0.14597973 -0.25896913 -0.050415237 -0.14190313 -0.11134424 0.3963301 0.3086059 0.38001764 -0.18643726 0.010922128 0.72441477 0.13580209 0.25864774 -0.11294135 0.0582847 0.3454009 0.18512833
4 -0.12553357 -0.5661208 0.301948 -0.058272284 -0.65799594 -0.018820139 0.43313214 0.25498685 1.0283216 0.34169078 0.41468778 0.13223656 -0.24239464 0.40146706 0.2156954 0.14282276 -0.10066276 0.18839459 -0.07762131 0.1905931 -0.1900831 0.29198614 0.39254197 0.1050612 0.32129386 -0.50979465 -0.18664305 -0.062176302 0.060861107 0.4881265 0.08916662 -0.14624147 -0.28809288 0.20670153 0.02475248 0.13088867 -0.40206704 0.31841615 0.014377442 -0.2420613 0.06708865 0.20590042 -0.07174605 -0.13582131 -0.19475824 -0.6404223 -0.79538625 0.5708954 0.345128 -0.46797064 -0.07513841 0.49856484 0.18304716 -0.5177946 0.4100181 -0.27059177 0.3699014 -0.32607865 0.035562806 0.0010110233 0.033786803 -0.44698992 0.20584431 0.09959151
111 0.42506897 -0.1979312 0.024514318 -0.11564057 -0.3796976 -0.120757066 0.35189062 0.26072124 -0.10877199 0.67459637 0.27422163 0.16298358 0.11727778 0.4485962 -0.388454 -0.23664123 0.29408386 0.0049254396 -0.009929534 0.54747725 0.054070517 -0.12179607 0.24517408 0.48134106 -0.24719244 -0.3098864 0.14773631 -0.2476129 -0.20816673 0.05306879 0.5893263 0.050777975 -0.32732326 0.030582821 -0.12644719 0.31194103 -0.06546122 0.22405232 -0.07859648 -0.618071 -0.3556389 0.5115302 0.11543033 0.08495885 0.13709292 -0.32130703 -0.5999635 0.850618 -0.11639834 0.47513127 0.44433773 0.27051002 0.5212113 -0.32378408 0.38752025 0.31968826 -0.07899204 -0.35374466 0.26399404 -0.1232674 -0.4981936 -0.3670574 0.57738173 0.07872016
136 0.38734078 -0.38343248 -0.14703812 0.14838468 -0.69850236 -0.39560845 0.08455606 0.04267598 0.083896786 0.8410986 0.48176405 -0.0052215327 0.21242192 0.30743444 -0.3925533 -0.039877802 0.04881991 0.08524646 -0.036285814 0.5478045 0.07057926 0.25373518 0.4354055 0.2576964 0.38476032 -0.336132 0.266961 -0.027540551 0.20373254 0.270934 0.11640038 -0.38373613 -0.21899402 0.11003144 0.42228627 -0.067288786 -0.30373737 -0.033884075 -0.2141759 0.067432195 -0.29271793 0.37909955 -0.06683503 0.0701155 0.3004676 -0.7044005 -0.3534597 0.53160876 0.07832002 -0.03155276 0.30040538 0.047028735 0.45004734 -0.3577272 0.7494295 -0.04303059 0.39982218 -0.07120421 -0.071424924 0.089912236 -0.21634841 -0.5528572 0.18407425 0.054389212
83 -0.085669406 0.08633 0.17776723 0.74724716 -0.14033929 0.21998103 0.453861 0.34479216 0.24676847 0.38367838 0.17557053 -0.19021492 0.53009576 -0.049168676 -0.35678878 -0.033588104 0.11940803 -0.5357966 0.31250435 0.5039932 0.18160781 -0.4080027 -0.45295674 -0.11979551 0.44213337 -0.3963623 -0.13719378 0.47459978 -0.10701967 0.3828146 0.29587504 -0.24647559 -0.058620762 0.36083347 -0.013273362 -0.025727166 -0.06762443 -0.47827432 -0.61503255 -0.4102795 0.3962905 0.37900493 -0.31083363 0.0541513 0.2909595 -0.4471118 -0.17704068 0.13937554 -0.021818515 0.32128632 -0.21376142 0.22046852 0.29987106 -0.0018022971 0.48806632 0.28194675 0.2173523 -0.29947674 -0.42994583 -0.35821453 0.17738219 -0.2594252 -0.70391685 0.17446491
178 -0.5924961 0.22200361 0.21979824 0.20144919 -0.39963493 0.35840994 0.23914629 0.46233997 0.15285318 0.28377622 -0.20270589 0.64028245 -0.4493966 0.041725695 0.3194342 -0.2209703 -0.3860518 -0.2582193 -0.25190744 -0.08568467 0.3242331 -0.35014388 -0.29725036 -0.43184912 -0.45087826 0.75333387 -0.28819224 0.22086537 -0.0076759197 0.42183045 0.6734109 -0.43001023 0.09062661 0.7332308 -0.49809754 0.28375158 -0.15302159 -0.1965326 -0.15767972 -0.6275212 -0.10885645 0.6180012 0.41638073 0.37157306 0.32395548 -0.2960353 -0.098548844 0.09262575 -0.12554954 0.1443379 -0.12545437 0.054985695 0.3006044 0.14315407 0.12592608 0.13189577 0.07125248 -0.1416783 0.18761227 -0.5294194 0.34524858 -0.015137594 -0.13413742 -0.07752653
93 0.51932275 -0.34587657 -0.29399294 -0.061258193 -0.70430636 -0.35370532 0.11010285 0.14860854 0.09982778 0.90971124 0.36469924 -0.03170089 0.14476272 0.24096087 -0.34287763 0.038363144 0.09185995 0.2427867 -0.02127333 0.43730462 -0.02113026 0.017272146 0.4347552 0.3626168 0.3384489 -0.114998415 0.17125796 -0.036706172 0.30990207 0.2629144 0.08266472 -0.44582868 -0.13170254 -0.09541716 0.24439716 -0.24932186 -0.3460985 -0.093888536 -0.29650766 -0.09915926 0.11718872 0.34870994 -0.16123863 0.15485664 0.33045855 -0.5773419 -0.36658671 0.5689386 -0.030099303 -0.04060615 0.21859927 0.108705394 0.3808036 -0.15879756 0.66536474 -0.034895357 0.56801784 -0.16801092 -0.32605043 0.043215964 -0.06847076 -0.36396435 0.3499959 0.15932457
114 0.19483875 -0.16475157 -0.3172746 -0.43523824 -0.67338866 0.337292 0.29469743 0.18790092 -0.09245467 0.5270586 0.4613046 0.26042727 0.44557178 0.109720096 -0.13595168 -0.38387352 0.36092016 0.21093675 -0.81421804 0.9220904 -0.15250993 -0.17861673 -0.5905243 -0.29304147 -0.14723052 0.4687125 0.14251375 0.44044954 -0.3355204 -0.55836713 0.3770673 0.043392077 0.04882073 0.52203184 -0.2926107 -0.32628134 0.08055995 -0.1832512 -0.4862368 -0.40613618 0.19995116 0.13539785 0.69578785 -0.010498627 0.4312233 0.042384725 0.101207115 -0.10713963 0.0028113497 -0.38533857 -0.19769302 0.094493836 0.35987493 -0.5248141 0.5069878 -0.17257144 0.15337645 0.5684677 -0.05918869 0.0043553254 0.24333255 0.38630393 -0.15662661 -0.1150981
180 -0.16919546 -0.0066601876 0.17844217 0.70294595 0.08195226 0.19131574 0.46277162 0.3767331 0.47705975 0.44649523 0.04957302 -0.21414399 0.62877506 -0.023375604 -0.47965732 0.015213922 -0.012883387 -0.27159292 0.28550643 0.2679198 0.24284714 -0.5661769 -0.346607 -0.2484982 0.49297655 -0.26677707 -0.08632365 0.5127211 -0.20810325 0.4069413 0.3149538 -0.20429781 0.021818317 0.08853521 -0.008910788 -0.07932037 -0.25478017 -0.3732759 -0.65693593 -0.3762989 0.6448938 0.5329078 -0.2397759 -0.1414136 0.1715212 -0.6661972 -0.20242082 0.168356 -0.14928532 0.5595686 -0.30263346 0.38470858 0.008833514 0.023947403 0.59335315 -0.019865863 0.21186712 -0.2975251 -0.2970525 -0.4888224 0.26792142 -0.067903645 -0.6164519 0.20303734
84 -0.18154863 -0.048157785 0.32398 0.60209394 0.09722468 0.15098354 0.39833593 0.47204876 0.3646587 0.44599792 0.14625922 -0.24834761 0.5378937 0.0055832476 -0.46595332 -0.11653499 0.05786629 -0.44497225 0.34132415 0.36957434 0.21392217 -0.54326254 -0.40997523 -0.13459428 0.45091045 -0.29043627 -0.025907842 0.43236247 -0.079194464 0.32025743 0.29488033 -0.35324103 -0.006837908 0.16753618 -0.06364863 -0.05879123 -0.2621469 -0.22894475 -0.6422977 -0.34829664 0.4377549 0.5381398 -0.19441797 0.04695747 0.27508727 -0.5982506 -0.12589918 0.1205088 -0.0014854037 0.5837964 -0.32248554 0.33240193 -0.014256892 -0.084727004 0.6548915 0.18850581 0.14661725 -0.28450292 -0.35104033 -0.40887323 0.22905445 -0.25354406 -0.65768176 0.14947978
168 0.565709 0.38887727 -0.05256716 0.30147767 -0.33411252 0.8582641 0.68692046 0.24348211 0.19399616 1.1031494 -0.26775774 -0.034449987 -0.315695 0.3884017 -0.3796401 -0.47413212 -0.005850628 0.074526414 -0.21925147 0.24984273 0.31622183 -0.14276107 -0.3295931 -0.022278953 -0.3488787 0.24214925 -0.3146473 -0.21087508 0.5602216 0.20383732 0.4423076 -0.14344545 -0.40499935 0.3563442 0.018795146 -0.26551664 0.68134767 0.030729301 0.30712163 -0.25662735 -0.08948018 0.417633 -0.23532178 -0.1931358 0.08694713 -1.0098038 -0.055900816 -0.23202851 0.07768686 0.068735324 -0.1677734 -0.49527335 -0.41599903 -0.18284236 0.8534283 -0.04830878 0.21939424 -0.60251844 -0.23003219 -0.027663011 0.24014705 -0.3449525 -0.34576806 0.059229136
148 0.45472458 0.35975933 -0.039851874 0.4258571 -0.38792267 0.8749279 0.7010455 0.36511925 0.27738425 1.1719185 -0.39713988 0.00036907443 -0.31330428 0.28472972 -0.4599709 -0.49479657 -0.0130775515 0.10456654 -0.13811816 0.21509077 0.42737025 -0.008510883 -0.4091021 0.15988205 -0.2844708 0.43563005 -0.24301885 -0.17483278 0.6671989 0.3289013 0.3094436 0.0232969 -0.40403515 0.43216658 0.27185732 -0.25354755 0.55056185 0.005331972 0.32053792 -0.317576 -0.11941194 0.5263303 -0.16885142 -0.121056564 0.08534979 -0.9353627 -0.011008063 -0.26914462 0.015534544 0.15390667 -0.016132418 -0.56233853 -0.29997444 0.034820136 0.6140665 -0.083919525 0.3219783 -0.422647 -0.25335577 -0.072061814 0.098533295 -0.19528629 -0.31752947 0.19663648
67 -0.34408012 -0.00017016304 0.026707577 -0.04689676 -0.8451795 0.12757486 0.34190965 0.07613935 -0.38364074 0.48653337 0.18459709 -0.81707835 -0.044394646 -0.9968921 -0.49291617 -0.07198013 -0.8282652 0.020337146 0.13846254 0.36059308 -0.30352178 -0.03930005 -0.32280195 -0.6262157 0.28650373 -0.062470894 -0.38670057 0.24550496 0.71752036 0.22143127 -0.13633336 -0.16626753 -0.7181731 0.44682035 -0.09539148 0.49121746 1.0813389 0.4247883 -0.23217937 -0.31896612 0.051091887 0.36989042 0.52299136 0.30407903 0.084406756 -0.90553755 -0.18623145 0.35341883 0.06430186 0.44823605 0.7260591 0.092469856 0.46782035 -0.59529114 0.21379516 0.0016111606 0.3558373 -0.42261952 0.051891807 -0.21745408 -0.10368009 0.16022685 -0.50404537 0.20146623
171 -0.1727609 0.420351 0.26522028 0.5876622 -0.8885951 0.35303655 -0.43921238 0.24028526 0.4435468 0.3930724 -0.5983448 -0.63055867 -0.36882472 0.3683093 -0.24248418 -0.31214458 -0.7538904 -0.09703282 0.24029186 0.82078743 -0.006283821 -0.5426743 0.556555 0.3652242 0.1172303 0.5051414 0.5975701 -0.11501234 0.6529407 0.109374754 0.46561444 -0.3381384 -0.5928536 0.28726244 0.3647048 0.20865223 -0.29666507 -0.70740956 0.23770498 -0.004874345 0.5469534 0.20693897 -0.23451784 -0.043059286 0.35397226 -0.44168377 0.36014798 0.34446242 -0.24172767 0.19120537 0.04437831 0.4330962 0.7575692 -0.8002852 -0.26277524 0.76375765 0.36549234 0.03782257 -0.051642224 -0.10672687 -0.17243792 -0.1140612 0.055519924 -0.05881251
49 -0.09480512 0.12424356 0.019193063 0.40425748 -0.4555774 0.6666536 -0.15913416 0.31536478 -0.18491684 0.052507333 -0.49197468 0.23582217 -0.23650809 0.38003516 0.009003424 -0.1858704 0.6942764 0.28497368 -0.51636904 0.6426757 -0.11848336 0.030545434 -0.426711 -0.41847262 0.039321918 0.41106775 0.08171976 0.9913838 0.25826368 -0.19338839 0.14140202 0.010265604 0.09546089 0.18334736 -0.33594096 0.27969003 0.20098755 -0.228746 -0.13781253 -0.13086657 0.32970187 0.15675113 0.12854637 0.7044862 0.11760115 -0.9930485 -0.07382607 0.29970944 0.49242455 -0.14270207 -0.27356336 0.048024412 0.49274155 0.25063473 0.35465673 -0.076331906 -0.11502229 0.36445352 0.021462781 0.9077004 -0.26537982 0.3653674 -0.041901696 0.18846525
7 -0.34398267 0.27891564 0.43492022 -0.39549965 -0.27378082 0.7820425 0.38285783 -0.018516205 0.080977395 0.37121335 0.035516076 0.025316514 0.1914988 0.29095694 0.24679755 -0.2119136 0.38923985 0.44187307 -0.47879022 0.30399582 0.4269948 0.19654343 -0.21202675 -0.7953501 -0.13143912 -0.27074778 0.32065502 0.71858966 -0.18177724 -0.5757872 -0.02133887 -0.4168519 0.0056117573 0.53671396 -0.090917915 -0.12198807 -0.1734408 0.09434154 -0.3018392 -0.36936778 -0.18205424 0.014315052 0.11367596 1.0186208 0.47672513 -0.5303761 -0.30004156 0.07790377 0.3230692 -0.37911764 -0.4587231 0.35117805 -0.08759018 -0.45198816 0.81186825 0.012169303 0.09320334 0.39365807 0.15433347 0.3220839 -0.25863358 -0.03635571 -0.17714588 -0.3282989
22 -0.5189072 0.20943406 -0.11178867 0.36298156 -0.75045896 0.33376682 0.55176735 0.6457646 -0.97798234 0.42882413 -0.011872948 0.27832824 0.51665694 -0.14914154 0.011576607 -0.25994417 -0.09333565 -1.0339981 -0.14198352 0.36811388 0.16744667 -0.29845378 0.018768907 -0.6598545 -0.10552 0.005125274 -0.3606448 -0.31888774 0.7879315 -0.10291116 0.70340943 0.07612001 -0.44401464 0.26356784 0.5393598 -0.21378344 0.5678652 0.27884498 -0.5500883 -0.11440891 0.29636803 0.25024787 -0.09494829 0.21684437 0.37820816 -0.1682366 -0.12622933 0.50949407 0.5646667 0.105756454 -0.36204955 1.0258639 -1.1213506 -0.02965844 1.2845794 -0.39715913 0.1684158 -0.76118547 0.80080754 -0.09292872 -0.28486484 0.23212682 -0.23106512 0.15882921
106 -0.09364102 0.14011924 0.18161815 0.7417992 -0.06103727 0.20309162 0.5433163 0.35639685 0.4229086 0.44498226 0.2735145 -0.14705038 0.42267317 -0.01708389 -0.36897323 -0.10886512 0.1624027 -0.40414023 0.29051307 0.37155938 0.3164395 -0.5123641 -0.28527752 -0.23402956 0.54095685 -0.3649806 0.01666139 0.35925102 -0.0631701 0.3499497 0.4316749 -0.2474828 -0.051043633 0.24109675 -0.2253066 -0.07641871 -0.115617566 -0.267602 -0.44308975 -0.35083935 0.5690939 0.32975858 -0.1721764 0.17106213 0.39414644 -0.52003664 -0.08828045 0.19100793 -0.0027504214 0.47415084 -0.21344727 0.2952302 0.20701522 0.027205523 0.46535814 0.29642326 0.11011364 -0.32534707 -0.38096824 -0.30680674 0.1498962 -0.13806355 -0.5745521 0.33015722
74 0.5816691 1.2155137 0.33610398 0.5021488 -0.41040555 0.66330355 -0.031380218 0.8634343 0.14686006 0.014963415 0.32589406 -0.548378 0.8741524 0.13405447 -0.5621326 -0.75101733 -0.72398525 -0.3764515 -0.8864238 0.15702042 -0.20528111 0.02863417 -0.5448406 -0.29474252 -0.077088535 0.097835295 -0.054287843 -0.035795514 0.83853227 -0.10628531 0.3497825 0.02943917 -0.0065964772 -0.33437917 -0.5500322 0.101417854 0.23174377 0.66498506 0.10902227 -0.16852638 0.08898046 -0.23321025 -0.50995386 0.103001416 -0.047087528 -0.43466726 -0.67600226 0.40500414 0.2520027 0.2917966 0.27008188 0.50133896 0.08274828 -0.45051125 0.761762 0.49291804 0.9980293 -0.5706709 0.5530093 -0.3886403 0.07607194 0.0743479 -0.58581805 -0.97046375
3 0.2189189 -0.2454865 0.097594194 -0.02250718 -0.6681683 -0.44024062 0.02452407 0.14987145 0.26745194 0.5926084 0.32227278 0.23756748 0.1409183 0.3318679 -0.05647557 0.07455792 -0.0014028804 0.17104429 -0.09918586 0.23451611 -0.016472826 0.041386753 0.089970455 0.24673434 0.07751807 -0.1388532 0.30705285 -0.12434799 -0.006843387 0.38439494 0.28398758 -0.46939287 0.05211317 0.15583564 -0.007463697 0.06755329 -0.067171425 0.22943528 -0.09455584 -0.18417081 0.061516438 0.6251474 -0.09306745 -0.0020832508 0.30944806 -0.54065204 -0.33900946 0.3640542 0.0486694 -0.30293554 0.087443486 0.21776246 0.4799253 -0.08423812 0.43750328 -0.031020336 0.26192254 -0.39183062 -0.0752922 -0.017900847 -0.1381839 -0.25968584 0.41982007 0.12331718
61 -0.31336623 0.09521415 0.3060412 1.0046184 -0.25527298 0.30115262 0.08876326 -0.3169251 0.33261418 0.52862585 -0.26229528 -0.24003254 -0.06500368 -0.022431415 -0.42386514 0.0361927 -0.46337798 -0.19196272 -0.38223255 0.52680075 0.2925566 0.042352196 0.44925663 0.41445205 0.17769012 0.6879858 -0.7334479 0.23366606 0.35997128 -0.16939276 0.6202281 -0.123006105 0.11800426 0.13258044 0.0734603 -0.3267342 0.40850392 0.17177954 -0.20935039 -0.23351867 0.117505476 0.7848716 0.6450354 0.45792305 0.28321946 -0.5423145 -0.20013691 0.15836234 -0.112446144 -0.084725924 0.36128914 0.42043093 0.2744068 -0.3919703 0.5721777 0.61506134 0.40265948 -0.38597104 0.44647822 0.05719273 0.12438424 0.45512748 -0.3264166 -0.31833422
183 -0.12953533 0.13039319 -0.2316239 -0.045327213 -0.9557355 0.18413852 0.20044023 -0.10809071 -0.38228786 0.46112278 0.1836701 -0.78353095 0.07497543 -0.78937817 -0.4323929 0.001529011 -0.8640183 0.37709388 0.38810202 0.31941783 0.028871711 -0.24181807 -0.44621515 -0.50606877 0.23661308 -0.0031738605 -0.43900305 0.119739674 0.7410267 0.2658752 -0.13025443 -0.20867337 -0.6398168 0.5551145 0.020065209 0.52668256 1.0279003 0.527099 -0.2811727 -0.25429532 0.17839454 0.2892352 0.27269506 0.15381008 0.2532483 -0.9308538 -0.066153586 0.32008514 0.14526136 0.3608846 0.71847177 0.33628848 0.6929472 -0.44650352 0.31990755 0.112073675 0.42705348 -0.5260822 0.051891416 -0.32106692 -0.357813 0.38452995 -0.2935743 0.1619865
107 -0.13554336 0.1007662 0.22469841 0.6998273 0.08546838 0.11541559 0.506905 0.47487083 0.32747588 0.42533994 0.24190804 -0.19898266 0.5028811 0.04552348 -0.52376556 -0.16422834 0.14685965 -0.42464098 0.30538943 0.46441433 0.17772636 -0.53442234 -0.3161226 -0.18437873 0.54131716 -0.22680402 -0.022552285 0.38684016 0.051063243 0.45988268 0.4298789 -0.25596446 -0.090555646 0.11050985 -0.25039324 -0.036380984 -0.17263252 -0.106663555 -0.54896617 -0.18925488 0.55892754 0.44182134 -0.12213858 0.11806493 0.23915327 -0.7033271 -0.008742148 0.15414797 -0.081598304 0.5428508 -0.33303976 0.339172 0.054376997 -0.09855577 0.5318257 0.1735532 0.031424478 -0.2945136 -0.31379732 -0.23110215 0.3101878 -0.12686975 -0.670408 0.21990481
77 -0.32981998 0.012841033 -0.40928897 0.015955485 -0.8028637 0.6080807 0.3910291 0.10185924 0.111453615 0.29211268 -0.30861723 0.12978129 0.022600023 -0.23813744 0.01760265 -0.606609 0.022500824 0.1275507 -0.8629763 0.3401725 0.15832153 -0.09513168 -0.32433152 0.23017181 0.25708336 -0.5009539 0.76724976 0.41063693 -0.20311472 -0.108385414 0.8331948 0.04676699 0.09134356 0.32762095 -0.27931264 -0.36435354 0.07901684 -0.2499823 0.021651858 -0.4047513 0.3079714 0.09471722 0.5592181 1.0377046 0.21158445 -0.3769885 -0.64398384 -0.14520271 0.58517617 -0.34280863 -0.17109871 -0.08652336 -0.14922747 0.0266932 0.43586764 -0.011685014 -0.38340837 0.62909925 0.03702838 0.26089337 -0.14970307 0.54970056 -0.0869088 -0.18081222
78 -0.16103613 0.022632712 0.25697052 0.63024104 0.09599583 0.23094422 0.36966875 0.40109855 0.5892035 0.360937 0.10133942 -0.33044222 0.54379123 -0.07466324 -0.47131532 -0.1081651 -0.006871347 -0.3044579 0.25352404 0.33290476 0.22331078 -0.5642657 -0.29606652 -0.18413572 0.5815318 -0.2578997 -0.05024019 0.46153304 -0.1720744 0.55061513 0.36920056 -0.28487995 -0.104045585 -0.05739156 -0.084158085 -0.08595193 -0.14355396 -0.2176028 -0.7151348 -0.30591285 0.64107484 0.5432341 -0.23845826 -0.060762107 0.124860056 -0.65380853 -0.21947886 0.10527972 -0.082636386 0.7236842 -0.33313364 0.4442817 -0.068636365 0.06557538 0.6697502 -0.043628838 0.143723 -0.35923764 -0.2929663 -0.4459992 0.24746889 -0.06579278 -0.6153373 0.28948066
116 -0.4123315 0.27926773 -0.16726698 -0.23111537 -0.49159694 1.1338084 0.6236076 -0.13665426 0.4466229 0.032949593 0.43089098 0.3937548 -0.08247401 0.09411761 0.07526259 -0.6604197 0.08176153 0.2797995 -0.5915868 0.5333846 0.34590116 -0.014673645 -0.26601112 -0.04973013 0.37949166 -0.009483433 -0.14899066 0.21668403 -0.0753382 -0.19721985 -0.031798914 0.18856794 0.46022797 -0.07206493 -0.16553205 -0.28198323 -0.24417673 -0.2340691 -0.28228086 -0.68406874 0.1221334 0.13083929 0.59572387 0.20509915 0.37375247 -1.0345973 -0.17473857 0.49437726 0.38008082 -0.5504511 -0.21950857 0.15468839 0.70556176 0.31041047 -0.035140425 -0.3427042 -0.03496859 0.3547305 0.058840077 0.10973501 -0.06911485 0.7921619 -0.13506512 0.43454394
102 0.3968535 0.26792642 0.14727883 -0.13563895 -0.6713661 0.103612654 0.7242335 0.15322313 0.22784895 0.7149566 -0.10007764 -0.67291373 0.21823372 0.34080222 0.32174212 -0.22136377 -0.2194086 -0.48019263 -0.010318724 0.39254227 -0.48375162 0.1401192 -0.3655723 -0.8478155 -0.0013866699 0.13380331 -0.4559027 0.3254232 0.16021135 0.29960153 0.43666103 -0.19568114 0.61074716 -0.38233992 0.23422146 0.4027517 0.39409697 -0.28548715 -0.44268373 -0.48491088 -0.41371226 0.30767798 0.40638775 0.436042 0.08312961 -0.5313971 0.25390267 0.004531038 0.013615047 0.17869908 0.046867106 0.36500448 -0.31804746 -0.1173706 0.4250014 0.61374015 0.25962514 0.005148035 0.21881764 -0.58168215 0.03675981 0.25598457 0.16689147 0.028761085
86 -0.0024200375 0.0071513085 -0.1501357 0.20372547 -0.75625575 0.6035579 0.32641983 0.11089893 0.7681093 -0.016183056 -0.07502497 0.3091742 0.04003746 0.40266365 0.25390068 -0.34433478 0.4215108 0.52847123 -0.35880962 0.33582118 -0.29539946 -0.57012355 -0.38201568 0.022568977 0.46501777 0.18631369 0.08224775 0.04204046 -0.08990207 -0.3701201 0.022710852 -0.37161332 0.09802707 0.48366475 -0.4524005 0.22310337 -0.25191185 0.6485614 -0.050906736 -0.6473758 0.5722284 0.3420125 0.40869862 0.4656023 0.66134226 -0.84440356 0.20118718 -0.5332196 0.5258553 -0.22237049 -0.28355032 0.40928224 -0.008506321 0.058675688 0.48762453 -0.3340326 0.25434533 0.6445184 -0.035392325 0.4274178 -0.29550564 -0.032005835 0.33724707 -0.17432265
96 0.3043337 -0.494721 0.09420945 -0.13572599 -0.52005297 -0.23990996 0.13170186 0.15179159 0.09867101 0.6295007 0.47987613 0.23748392 0.23233803 0.33678275 -0.13507552 -0.0604783 -0.22180916 0.031891394 -0.15076433 0.41332996 -0.002808425 0.048325494 0.40334213 0.07059113 0.091710255 0.04053415 0.34507233 -0.055318385 -0.12224812 0.44075364 0.3476295 -0.1690571 -0.07707899 0.018548118 -0.028017282 0.09649501 -0.27391124 0.004624542 -0.05561608 -0.12352552 0.046372317 0.62151283 0.026223611 -0.008846139 0.14495301 -0.48251835 -0.43398434 0.46299616 -0.112175174 -0.07687889 0.3008841 0.09616393 0.5726379 -0.15453455 0.5502898 -0.17994793 0.23628005 -0.24264932 -0.13124187 0.023326319 -0.0295699 -0.38924018 0.20759778 0.03462826
82 -0.548176 0.19230796 0.090663254 0.18640521 -0.4281031 0.3758808 0.31827495 0.5841377 0.18175709 0.34498402 -0.3534988 0.6650563 -0.5177695 0.14408807 0.27608263 -0.20437159 -0.25416473 -0.19533059 -0.18909046 -0.12982549 0.3593079 -0.4230619 -0.33432627 -0.32489622 -0.38346946 0.9596161 -0.30703712 0.1829112 0.03620439 0.37401196 0.6843495 -0.50982684 0.23205014 0.73495287 -0.513828 0.42061892 -0.17081039 -0.29224178 -0.11155145 -0.69861245 -0.057149544 0.5445028 0.40469536 0.47339913 0.27497104 -0.19865961 0.021578997 0.1694628 -0.09140597 0.008204727 -0.13515209 0.035876375 0.18738736 0.061336797 0.25503385 0.13751125 0.009191025 -0.17645685 0.14593288 -0.562011 0.23072463 0.057530932 -0.16896681 -0.22725119
124 -0.40746713 -0.09909784 -0.28370163 -0.35386404 -0.76292753 0.5734524 0.6572685 0.16847432 -0.24583782 0.26140472 -0.5215706 0.116196826 0.20538211 0.28207326 0.14209597 -0.027863622 0.6105236 0.6282935 -0.5021032 1.0265602 0.43810278 0.32255763 -0.053713076 0.26102236 0.00053559284 0.07846486 -0.15334219 0.8582234 -0.12404784 -0.287857 0.20538625 -0.18155539 0.11154888 0.56771696 -0.20138307 -0.21351126 -0.3319278 0.04085356 -0.26486567 -0.5098375 0.39317024 -0.49141517 0.1412164 0.432458 0.1129448 -0.5458081 -0.67072314 -0.4504482 -0.0014391036 -0.092182726 -0.28157604 0.05597967 0.275557 0.2721557 0.32865304 -0.09810069 0.21519095 0.01872675 0.1359025 -0.5164279 0.083749674 0.42907676 0.16119635 -0.034070328
37 -0.15202804 0.39934418 0.12002799 1.1068761 -0.50486636 0.38939264 0.40867075 0.37322733 -0.17979886 -0.32473415 0.41287053 -0.37602812 -0.13942581 -0.1401983 0.025407529 0.029562613 -0.004148925 0.37667212 -0.8141801 0.10243788 -0.40643677 -0.42956677 0.6298666 -0.42957345 0.14027174 -0.2002611 0.09028677 0.13452545 0.1398198 0.30449474 0.60975295 -0.11116651 0.29759607 0.53996074 0.5662921 -0.22129695 0.1880089 -0.18067633 -0.16802888 -0.48987168 -0.016885906 0.25856942 -0.36610305 0.0578931 0.010329709 -0.3468197 0.01087822 0.17708354 -0.2582732 0.38084322 -0.078045696 0.06778582 0.4240197 -0.1799163 0.6398766 -0.014933017 0.14538741 -0.061595872 0.26104632 -0.31034842 0.54256237 0.31064883 0.25805262 0.19039226
17 -0.43683118 0.42797092 0.2586417 0.49497226 -1.1048725 0.2922761 -0.27885464 0.2838131 0.7792061 0.4203521 -0.4915983 -0.55443186 -0.57247573 0.39776248 -0.36881936 -0.113675535 -0.86596483 -0.2972094 0.0008584055 0.8741283 -0.07296715 -0.34000924 0.5293922 0.23404083 0.0039960337 0.47407687 0.38535056 -0.061715614 0.7542572 -0.101454176 0.49658537 -0.5026601 -0.6145468 0.096881784 0.60791105 0.33255896 -0.349288 -0.75273055 0.24052289 0.18187118 0.29163963 0.18708989 -0.06607293 -0.025888463 0.13289627 -0.28671333 0.3821681 0.2268778 -0.46365383 0.10189483 -0.024818936 0.36583087 0.66963834 -0.9029191 -0.26707095 0.5065027 0.4347911 -0.103480354 0.014537729 -0.07132554 0.27135444 -0.09431079 0.053592023 -0.29300845
195 0.16455212 -0.3168884 0.054415 -0.08056511 -0.5885024 -0.20713912 0.024264928 0.008608437 0.21898946 0.66900945 0.274894 0.14277174 0.051215533 0.27442154 0.034656405 0.0069107953 -0.12997663 -0.013781446 -0.05861056 0.26438382 -0.02452518 -0.029364446 0.05848841 0.21191035 0.10695903 -0.21784459 0.2906155 -0.11792535 -0.072204195 0.37793297 0.06975746 -0.43759266 -0.120671906 0.21709237 0.20908283 0.0712201 -0.27781525 0.09529135 -0.120784625 -0.27322125 -0.020562075 0.48939297 -0.09189731 0.11315207 0.23712756 -0.43475112 -0.61916476 0.30448025 -0.053855445 -0.13076498 0.17908773 0.16067049 0.55267143 -0.14584555 0.63255346 -0.068947144 0.1804841 -0.38827977 -0.044795193 -0.13199578 -0.05022339 -0.36141387 0.42232168 -0.04724108
197 0.40181217 -0.42039776 -0.30175036 0.11994302 -0.5832604 -0.05350191 0.2574891 -0.029665314 -0.080954105 0.84977794 0.3941172 -0.085906796 0.17940775 0.53011066 -0.5078274 -0.046622794 0.08597328 0.21921185 -0.03279221 0.5992013 0.124009416 0.20205437 0.45074543 0.10722107 0.5845984 -0.35148248 0.19633292 0.008386146 0.23288295 0.30589828 0.055266425 -0.38969108 0.14360145 -0.23315871 0.48819506 -0.21270938 -0.38590878 -0.105626 -0.12147307 -0.11679713 0.027998554 0.44517413 -0.05159037 0.23105247 0.3867755 -0.61759645 -0.44837448 0.59935737 -0.033367023 -0.06670272 0.6230952 0.04868019 0.35207224 -0.1212685 0.993276 -0.11636498 0.42392594 -0.26572403 -0.16359101 0.13543506 -0.13866836 -0.5588655 0.19995828 -0.08823829
2 0.1605768 -0.6333185 -0.30321518 -0.44737795 -0.6057364 0.02023531 -0.05384576 0.15397921 0.018050415 0.38803247 0.27315354 0.29169273 0.39752266 0.2505392 -0.027288275 0.14749418 -0.27374995 -0.050532542 -0.15896069 0.49769422 0.53013885 0.34760514 0.63260794 -0.0077141444 -0.011434209 0.08403329 0.38156956 0.16872773 -0.19945702 0.83903867 0.5409125 -0.08124875 -0.03297193 -0.12621048 0.051481154 -0.25586024 -0.00939334 0.15301363 -0.34989357 -0.38751206 0.08436451 0.26092777 -0.084468 -0.039317068 0.17704351 -0.44816017 -0.34769958 0.7053269 0.40203264 -0.16488351 -0.18532814 -0.26156443 0.62604886 -0.39704195 0.3613178 0.22912642 0.31753427 -0.31615618 -0.048961684 -0.6562404 0.077582255 -0.35179862 0.18021959 -0.027558519
117 0.40225914 0.55250347 -0.35109198 -0.1751145 0.0026794847 0.37418172 0.1339413 0.16674717 0.25407013 -0.0036447647 -0.3529839 0.36815152 -0.12087846 0.061064467 -0.0039979797 0.06094896 0.26664287 -0.07867045 -0.67122936 0.44263157 0.58401126 0.0737664 -0.42978048 0.079155155 0.5085581 -0.027898347 0.21885759 0.62291455 0.43842417 -0.09173801 0.018446153 -0.20136844 0.018883388 1.0987802 -0.1666394 0.09016671 -0.17530139 0.11383784 -0.5210254 -0.62087196 -0.21225972 0.029618612 0.6393537 0.5083314 0.6541129 -0.4931709 -0.45452473 -0.11300909 0.1556145 -0.16276258 -0.08116653 0.33945557 0.6132041 -0.28987187 0.45982224 -0.7058995 0.17773247 0.6469713 0.5703551 0.25032166 -0.21418782 0.26858845 -0.13681364 0.32312176
109 -0.042086285 -0.06660193 -0.0752775 -0.10514528 -0.74289304 -0.098511055 -0.026878506 -0.26357272 0.22871004 0.6376214 0.5256607 -0.29614237 -0.13225225 -0.23135282 -0.0184781 -0.26604185 0.24082851 -0.21183744 0.12942567 0.40308964 -0.36505994 0.2914715 0.21870874 0.32926983 -0.10833551 -0.18424284 0.19623452 0.037931435 -0.11902966 0.6003187 0.6187032 -0.17404927 0.23109916 -0.13219494 -0.108102456 -0.047275577 -0.5451476 0.12566577 0.14637756 -0.4916677 0.0686757 0.55951697 -0.19612114 -0.07577808 0.39324498 -0.49751866 -0.6226335 0.59661496 -0.4899602 0.086752184 0.037352968 -0.10874524 0.3025494 -0.10456979 0.518864 -0.16126083 0.74937654 -0.42713207 0.05014241 0.5323253 0.08284825 0.03441175 0.42919153 0.234919
